{"learner":{"attributes":{"scikit_learn":"{\"_estimator_type\": \"classifier\"}"},"feature_names":["Customer_Age","Total_Relationship_Count","Months_Inactive_Past_12_Months","Total_Revolving_Balance","Transaction_Amt_Change_Q4_over_Q1","Total_Transaction_Amount","Total_Transaction_Count","Transaction_Count_Change_Q4_over_Q1","Gender_M","Marital_Status_Married"],"feature_types":["int","int","int","int","float","int","int","float","i","i"],"gradient_booster":{"model":{"gbtree_model_param":{"num_parallel_tree":"1","num_trees":"240"},"iteration_indptr":[0,1,2,3,4,5,6,7,8,9,10,11,12,13,14,15,16,17,18,19,20,21,22,23,24,25,26,27,28,29,30,31,32,33,34,35,36,37,38,39,40,41,42,43,44,45,46,47,48,49,50,51,52,53,54,55,56,57,58,59,60,61,62,63,64,65,66,67,68,69,70,71,72,73,74,75,76,77,78,79,80,81,82,83,84,85,86,87,88,89,90,91,92,93,94,95,96,97,98,99,100,101,102,103,104,105,106,107,108,109,110,111,112,113,114,115,116,117,118,119,120,121,122,123,124,125,126,127,128,129,130,131,132,133,134,135,136,137,138,139,140,141,142,143,144,145,146,147,148,149,150,151,152,153,154,155,156,157,158,159,160,161,162,163,164,165,166,167,168,169,170,171,172,173,174,175,176,177,178,179,180,181,182,183,184,185,186,187,188,189,190,191,192,193,194,195,196,197,198,199,200,201,202,203,204,205,206,207,208,209,210,211,212,213,214,215,216,217,218,219,220,221,222,223,224,225,226,227,228,229,230,231,232,233,234,235,236,237,238,239,240],"tree_info":[0,0,0,0,0,0,0,0,0,0,0,0,0,0,0,0,0,0,0,0,0,0,0,0,0,0,0,0,0,0,0,0,0,0,0,0,0,0,0,0,0,0,0,0,0,0,0,0,0,0,0,0,0,0,0,0,0,0,0,0,0,0,0,0,0,0,0,0,0,0,0,0,0,0,0,0,0,0,0,0,0,0,0,0,0,0,0,0,0,0,0,0,0,0,0,0,0,0,0,0,0,0,0,0,0,0,0,0,0,0,0,0,0,0,0,0,0,0,0,0,0,0,0,0,0,0,0,0,0,0,0,0,0,0,0,0,0,0,0,0,0,0,0,0,0,0,0,0,0,0,0,0,0,0,0,0,0,0,0,0,0,0,0,0,0,0,0,0,0,0,0,0,0,0,0,0,0,0,0,0,0,0,0,0,0,0,0,0,0,0,0,0,0,0,0,0,0,0,0,0,0,0,0,0,0,0,0,0,0,0,0,0,0,0,0,0,0,0,0,0,0,0,0,0,0,0,0,0,0,0,0,0,0,0,0,0,0,0,0,0],"trees":[{"base_weights":[-2.5358486E-1,9.7792774E-1,-1.0254561E0,2.8033614E0,-3.0927112E-2,-1.1539042E0,1.2993045E-1,2.6192275E-1,3.0585093E0,2.584353E-1,-3.4858832E-1,-3.295701E-1,-1.4763516E-1,1.6141461E0,-7.571286E-1,5.881728E-2,-2.3321617E-2,3.1611192E0,-7.682836E-3,-7.7843E-1,6.0140145E-1,-4.7906625E-1,3.599895E-2,1.3465183E-3,2.1632633E-1,-8.695478E-1,2.7853811E-2,3.2357974E0,3.7924328E-1,5.0977373E-1,-8.992298E-1,1.4712163E0,-4.2038786E-1,-0E0,-7.3873356E-2,-1.1291519E-1,-0E0,1.3381352E-2,4.0447658E-1,-5.583457E-3,6.2099885E-2,9.997993E-2,-1.715312E-2,4.281573E-2,-1.23911574E-1,2.5528342E-1,-2.4337428E-2,-7.3236555E-2,3.3068817E-2],"categories":[],"categories_nodes":[],"categories_segments":[],"categories_sizes":[],"default_left":[0,0,0,0,0,0,0,0,0,0,0,0,0,0,0,0,0,0,0,0,0,0,0,0,0,0,0,0,0,0,0,0,0,0,0,0,0,0,0,0,0,0,0,0,0,0,0,0,0],"id":0,"left_children":[1,3,5,7,9,11,13,15,17,-1,19,21,-1,23,25,-1,-1,27,-1,29,31,33,-1,-1,-1,35,-1,37,39,41,43,45,47,-1,-1,-1,-1,-1,-1,-1,-1,-1,-1,-1,-1,-1,-1,-1,-1],"loss_changes":[6.6931116E2,5.0298975E2,6.586264E1,5.397638E1,1.3051541E2,7.581421E0,8.002668E1,2.8422046E0,3.0969849E1,0E0,7.360806E1,4.2533855E0,0E0,3.8997002E0,6.401331E0,0E0,0E0,4.3882446E0,0E0,2.3382706E1,5.7772957E1,1.6871848E0,0E0,0E0,0E0,1.6382713E0,0E0,2.3012085E0,1.0752561E0,4.458167E0,1.7869583E1,3.7557907E1,5.6180825E0,0E0,0E0,0E0,0E0,0E0,0E0,0E0,0E0,0E0,0E0,0E0,0E0,0E0,0E0,0E0,0E0],"parents":[2147483647,0,0,1,1,2,2,3,3,4,4,5,5,6,6,7,7,8,8,10,10,11,11,13,13,14,14,17,17,19,19,20,20,21,21,25,25,27,27,28,28,29,29,30,30,31,31,32,32],"right_children":[2,4,6,8,10,12,14,16,18,-1,20,22,-1,24,26,-1,-1,28,-1,30,32,34,-1,-1,-1,36,-1,38,40,42,44,46,48,-1,-1,-1,-1,-1,-1,-1,-1,-1,-1,-1,-1,-1,-1,-1,-1],"split_conditions":[5.7E1,5.85E2,5.402E3,2E0,3E0,6E1,7.9E1,4.6E1,1.059E0,2.584353E-1,2.078E3,4.495E3,-1.4763516E-1,2E0,9.12E-1,5.881728E-2,-2.3321617E-2,3.148E3,-7.682836E-3,4.12E-1,4.8E1,6.56E-1,3.599895E-2,1.3465183E-3,2.1632633E-1,8.444E3,2.7853811E-2,3.2E1,3.74E3,5.2E1,1.109E3,8.9E-1,2.203E3,-0E0,-7.3873356E-2,-1.1291519E-1,-0E0,1.3381352E-2,4.0447658E-1,-5.583457E-3,6.2099885E-2,9.997993E-2,-1.715312E-2,4.281573E-2,-1.23911574E-1,2.5528342E-1,-2.4337428E-2,-7.3236555E-2,3.3068817E-2],"split_indices":[6,3,5,2,1,6,6,6,4,0,5,5,0,2,4,0,0,5,0,4,6,4,0,0,0,5,0,0,5,0,5,4,3,0,0,0,0,0,0,0,0,0,0,0,0,0,0,0,0],"split_type":[0,0,0,0,0,0,0,0,0,0,0,0,0,0,0,0,0,0,0,0,0,0,0,0,0,0,0,0,0,0,0,0,0,0,0,0,0,0,0,0,0,0,0,0,0,0,0,0,0],"sum_hessian":[6.842302E2,2.624422E2,4.21788E2,8.742575E1,1.7501645E2,3.7988962E2,4.1898376E1,9.897255E0,7.7528496E1,1.5670653E1,1.593458E2,2.0949188E1,3.5894043E2,1.2866431E1,2.9031948E1,6.928078E0,2.9691763E0,7.5054184E1,2.4743137E0,1.1117916E2,4.816664E1,1.9134693E1,1.8144968E0,1.979451E0,1.088698E1,2.7382404E1,1.6495425E0,7.1425186E1,3.6289935E0,6.59817E0,1.0458099E2,2.3918365E1,2.4248274E1,5.44349E0,1.3691202E1,2.606277E1,1.319634E0,1.1546798E0,7.027051E1,1.4845881E0,2.1444051E0,3.299085E0,3.299085E0,5.7733984E0,9.8807594E1,1.6165516E1,7.7528496E0,2.0949188E1,3.299085E0],"tree_param":{"num_deleted":"0","num_feature":"10","num_nodes":"49","size_leaf_vector":"1"}},{"base_weights":[-1.9167556E-1,8.980366E-1,-9.7793007E-1,2.1831126E0,1.07044205E-2,-1.108045E0,2.0518798E-2,2.402479E0,-1.00099385E-1,8.428173E-1,-5.9531504E-1,-2.756674E-1,-1.1477629E0,1.3196526E0,-7.647364E-1,3.871663E-1,3.1654185E-1,2.5952406E-2,-3.2358825E-2,-0E0,1.957529E0,7.871253E-2,-6.746291E-1,2.4217671E-1,-7.1861506E-2,-1.7611285E-1,-1.4357433E-1,-1.601063E-2,1.9097789E-1,-1.0566561E-1,2.7277421E-2,5.418458E-1,-1.1009398E-2,-3.1592053E-1,7.558919E-1,-9.379193E-3,2.1505442E0,-9.051135E-1,-6.7302376E-2,6.605047E-2,-2.2998758E-2,2.1323556E-2,-4.408263E-2,7.636314E-2,-1.4303371E-3,5.5238232E-2,-6.392418E-2,1.1521893E-1,-1.6925601E-2,2.8425655E-1,1.7786743E-2,4.113193E-3,-1.1480281E-1,4.13615E-2,-6.7326E-2],"categories":[],"categories_nodes":[],"categories_segments":[],"categories_sizes":[],"default_left":[0,0,0,0,0,0,0,0,0,0,0,0,0,0,0,0,0,0,0,0,0,0,0,0,0,0,0,0,0,0,0,0,0,0,0,0,0,0,0,0,0,0,0,0,0,0,0,0,0,0,0,0,0,0,0],"id":1,"left_children":[1,3,5,7,9,11,13,15,17,19,21,23,25,27,29,31,-1,-1,-1,33,35,-1,37,39,-1,41,-1,-1,-1,-1,-1,43,-1,45,47,-1,49,51,53,-1,-1,-1,-1,-1,-1,-1,-1,-1,-1,-1,-1,-1,-1,-1,-1],"loss_changes":[5.994417E2,3.340916E2,5.3299286E1,6.320056E1,9.76013E1,8.28595E0,6.6998024E1,2.2849121E1,1.5259277E0,7.711359E1,1.5059082E1,6.1307335E0,1.0163879E0,1.0392197E1,5.5747013E0,2.0509045E0,0E0,0E0,0E0,1.5621132E1,1.6187408E1,0E0,1.4436176E1,3.2346792E0,0E0,1.6247536E0,0E0,0E0,0E0,0E0,0E0,9.710684E-1,0E0,9.331806E0,4.500226E0,0E0,5.2826843E0,2.1835556E0,9.679498E0,0E0,0E0,0E0,0E0,0E0,0E0,0E0,0E0,0E0,0E0,0E0,0E0,0E0,0E0,0E0,0E0],"parents":[2147483647,0,0,1,1,2,2,3,3,4,4,5,5,6,6,7,7,8,8,9,9,10,10,11,11,12,12,13,13,14,14,15,15,19,19,20,20,22,22,23,23,25,25,31,31,33,33,34,34,36,36,37,37,38,38],"right_children":[2,4,6,8,10,12,14,16,18,20,22,24,26,28,30,32,-1,-1,-1,34,36,-1,38,40,-1,42,-1,-1,-1,-1,-1,44,-1,46,48,-1,50,52,54,-1,-1,-1,-1,-1,-1,-1,-1,-1,-1,-1,-1,-1,-1,-1,-1],"split_conditions":[5.7E1,6.73E2,5.402E3,8.7E-1,5.88E-1,2.66E3,7.9E1,2E0,1.109E3,2.017E3,8.56E2,6.92E-1,4.69E-1,2E0,9.84E-1,4.5E1,3.1654185E-1,2.5952406E-2,-3.2358825E-2,2.19E3,3.4E1,7.871253E-2,2.078E3,1E0,-7.1861506E-2,6.4E1,-1.4357433E-1,-1.601063E-2,1.9097789E-1,-1.0566561E-1,2.7277421E-2,7.23E-1,-1.1009398E-2,4.05E-1,5.37E-1,-9.379193E-3,5.3E1,4.12E-1,8.22E-1,6.605047E-2,-2.2998758E-2,2.1323556E-2,-4.408263E-2,7.636314E-2,-1.4303371E-3,5.5238232E-2,-6.392418E-2,1.1521893E-1,-1.6925601E-2,2.8425655E-1,1.7786743E-2,4.113193E-3,-1.1480281E-1,4.13615E-2,-6.7326E-2],"split_indices":[6,3,5,7,7,5,6,2,5,5,5,4,7,2,4,6,0,0,0,3,0,0,5,8,0,6,0,0,0,0,0,7,0,4,7,0,6,4,7,0,0,0,0,0,0,0,0,0,0,0,0,0,0,0,0],"split_type":[0,0,0,0,0,0,0,0,0,0,0,0,0,0,0,0,0,0,0,0,0,0,0,0,0,0,0,0,0,0,0,0,0,0,0,0,0,0,0,0,0,0,0,0,0,0,0,0,0,0,0,0,0,0,0],"sum_hessian":[6.800232E2,2.842362E2,3.9578702E2,1.10159485E2,1.740767E2,3.495474E2,4.6239624E1,1.0019161E2,9.967874E0,7.2022224E1,1.0205449E2,1.9843525E1,3.297039E2,1.5120179E1,3.1119446E1,9.573059E0,9.061855E1,1.6228303E0,8.345043E0,4.642291E1,2.5599316E1,1.7932887E0,1.002612E2,7.6162286E0,1.2227296E1,5.7662477E0,3.2393762E2,2.311173E0,1.2809007E1,3.011364E1,1.0058062E0,6.80697E0,2.7660892E0,3.6882565E1,9.540344E0,2.561554E0,2.3037764E1,6.879751E1,3.1463686E1,3.6384377E0,3.9777908E0,1.392555E0,4.373693E0,5.6302195E0,1.1767508E0,4.8052697E0,3.2077297E1,7.9993696E0,1.5409746E0,2.0046589E1,2.9911745E0,1.0023482E0,6.7795166E1,1.8217329E1,1.3246358E1],"tree_param":{"num_deleted":"0","num_feature":"10","num_nodes":"55","size_leaf_vector":"1"}},{"base_weights":[-1.9641456E-1,8.146822E-1,-9.2147505E-1,1.8238946E0,7.496407E-2,-1.0510346E0,3.3076778E-2,1.9764285E0,-1.650467E-1,-3.770577E-1,9.632107E-1,-2.9877508E-1,-1.3862197E-1,1.174076E0,-7.0856476E-1,1.0202991E0,2.7860433E-1,2.913326E-2,-4.5752704E-2,1.3900705E-1,-5.5946326E-1,1.4409333E0,-5.8633402E-2,-4.9591506E-1,7.151212E-2,-3.78146E-3,1.626136E-1,-8.374276E-1,3.1276885E-2,1.1768858E0,-1.8952299E-2,1.8222307E-1,-8.785562E-1,1.654064E0,-2.6956784E-2,7.55945E-2,-8.460633E-2,-1.0893399E-1,1.0816574E-3,1.6847979E-1,1.6643804E-2,-8.214487E-2,1.1314137E-1,-8.663971E-3,-1.1509621E-1,-1.9529338E-3,2.1606696E-1,5.4145843E-2,-3.7585013E-2],"categories":[],"categories_nodes":[],"categories_segments":[],"categories_sizes":[],"default_left":[0,0,0,0,0,0,0,0,0,0,0,0,0,0,0,0,0,0,0,0,0,0,0,0,0,0,0,0,0,0,0,0,0,0,0,0,0,0,0,0,0,0,0,0,0,0,0,0,0],"id":2,"left_children":[1,3,5,7,9,11,13,15,17,19,21,23,-1,25,27,29,-1,-1,-1,-1,31,33,-1,35,-1,-1,-1,37,-1,39,-1,41,43,45,-1,47,-1,-1,-1,-1,-1,-1,-1,-1,-1,-1,-1,-1,-1],"loss_changes":[4.9449518E2,2.088318E2,4.9167572E1,3.9882507E1,7.330503E1,1.3749573E1,5.547708E1,5.4788513E0,2.2942753E0,3.907093E1,4.9107384E1,9.994586E0,0E0,5.1558495E0,7.174507E0,9.949135E0,0E0,0E0,0E0,0E0,2.9023895E1,2.1223518E1,0E0,4.9784327E0,0E0,0E0,0E0,1.7158623E0,0E0,5.0910683E0,0E0,3.2022285E1,2.333973E0,7.528076E0,0E0,3.7975476E0,0E0,0E0,0E0,0E0,0E0,0E0,0E0,0E0,0E0,0E0,0E0,0E0,0E0],"parents":[2147483647,0,0,1,1,2,2,3,3,4,4,5,5,6,6,7,7,8,8,9,9,10,10,11,11,13,13,14,14,15,15,20,20,21,21,23,23,27,27,29,29,31,31,32,32,33,33,35,35],"right_children":[2,4,6,8,10,12,14,16,18,20,22,24,-1,26,28,30,-1,-1,-1,-1,32,34,-1,36,-1,-1,-1,38,-1,40,-1,42,44,46,-1,48,-1,-1,-1,-1,-1,-1,-1,-1,-1,-1,-1,-1,-1],"split_conditions":[5.5E1,6.33E2,5.402E3,8.67E-1,2.078E3,6E1,7.9E1,1.806E3,1.109E3,1.028E3,8.22E-1,4.486E3,-1.3862197E-1,2E0,9.12E-1,4.3E1,2.7860433E-1,2.913326E-2,-4.5752704E-2,1.3900705E-1,5.85E-1,1.059E0,-5.8633402E-2,2.14E2,7.151212E-2,-3.78146E-3,1.626136E-1,8.444E3,3.1276885E-2,6.17E-1,-1.8952299E-2,1.536E3,1.191E3,3.2E1,-2.6956784E-2,2.84E3,-8.460633E-2,-1.0893399E-1,1.0816574E-3,1.6847979E-1,1.6643804E-2,-8.214487E-2,1.1314137E-1,-8.663971E-3,-1.1509621E-1,-1.9529338E-3,2.1606696E-1,5.4145843E-2,-3.7585013E-2],"split_indices":[6,3,5,7,5,6,6,5,5,5,7,5,0,2,4,6,0,0,0,0,4,4,0,3,0,0,0,5,0,7,0,5,5,0,0,5,0,0,0,0,0,0,0,0,0,0,0,0,0],"split_type":[0,0,0,0,0,0,0,0,0,0,0,0,0,0,0,0,0,0,0,0,0,0,0,0,0,0,0,0,0,0,0,0,0,0,0,0,0,0,0,0,0,0,0,0,0,0,0,0,0],"sum_hessian":[6.5489795E2,2.7278705E2,3.821109E2,1.09169975E2,1.6361705E2,3.3592938E2,4.6181534E1,1.0162463E2,7.5453396E0,1.1184438E2,5.177268E1,3.2376835E1,3.0355252E2,1.6170027E1,3.0011507E1,3.2940052E1,6.8684586E1,1.4358735E0,6.109466E0,6.5135837E0,1.05330795E2,3.9021633E1,1.2751042E1,3.019781E1,2.1790264E0,2.1559386E0,1.4014088E1,2.7900373E1,2.1111343E0,2.9314968E1,3.6250832E0,3.258038E1,7.275042E1,3.479965E1,4.221987E0,8.359636E0,2.1838171E1,2.6661848E1,1.2385244E0,2.2146713E1,7.1682534E0,1.5287286E1,1.7293095E1,6.022665E0,6.672775E1,1.9546537E0,3.2844994E1,4.0251856E0,4.3344507E0],"tree_param":{"num_deleted":"0","num_feature":"10","num_nodes":"49","size_leaf_vector":"1"}},{"base_weights":[-1.8421838E-1,6.761004E-1,-8.680743E-1,1.4382416E0,-1.10453054E-1,-1.0099998E0,1.897157E-2,1.724821E0,9.8415464E-2,-4.7356573E-1,8.0588233E-1,-2.317981E-1,-1.0946101E0,1.779713E-1,-6.1769193E-1,-1.3389585E-2,2.1739392E-1,9.0554826E-2,-2.0436564E-1,-7.8485596E-1,2.739169E-1,1.2198584E0,-2.8156775E-1,-4.9016148E-1,8.709337E-2,3.0936932E-3,-1.3652462E-1,-7.8493834E-1,3.165027E-1,4.8580393E-2,-3.859806E-1,3.9537143E-2,-8.9234173E-1,8.137334E-1,-4.6429044E-1,1.1010391E-2,1.3271645E0,2.8261855E-2,-5.6994956E-2,7.925713E-2,-8.276812E-2,-8.5921466E-1,1.5459564E-2,-1.2385768E-2,6.2146112E-2,-8.350988E-2,1.0547881E-2,1.1461043E-2,-1.1703976E-1,1.19381435E-1,-2.1292878E-2,6.663295E-4,-7.039077E-2,1.7744897E-1,1.165724E-2,3.4013264E-2,-2.5209714E-2,-1.1103907E-1,-0E0],"categories":[],"categories_nodes":[],"categories_segments":[],"categories_sizes":[],"default_left":[0,0,0,0,0,0,0,0,0,0,0,0,0,0,0,0,0,0,0,0,0,0,0,0,0,0,0,0,0,0,0,0,0,0,0,0,0,0,0,0,0,0,0,0,0,0,0,0,0,0,0,0,0,0,0,0,0,0,0],"id":3,"left_children":[1,3,5,7,9,11,13,15,17,19,21,23,25,-1,27,-1,-1,-1,29,31,33,35,37,39,-1,-1,-1,41,43,-1,45,-1,47,49,51,-1,53,-1,-1,55,-1,57,-1,-1,-1,-1,-1,-1,-1,-1,-1,-1,-1,-1,-1,-1,-1,-1,-1],"loss_changes":[3.834817E2,1.7559401E2,4.615149E1,5.449713E1,5.3881813E1,1.7645996E1,6.2176666E1,8.899506E0,8.63698E0,2.8954327E1,2.4470678E1,1.3720976E1,2.807312E0,0E0,9.973564E0,0E0,0E0,0E0,4.9121995E0,1.291066E1,1.9935232E1,2.643734E0,2.9482818E0,4.7745724E0,0E0,0E0,0E0,4.2337246E0,1.6919701E0,0E0,4.8112116E0,0E0,5.2130394E0,5.9025707E0,1.3578115E0,0E0,2.1809654E0,0E0,0E0,1.5395868E0,0E0,1.5561447E0,0E0,0E0,0E0,0E0,0E0,0E0,0E0,0E0,0E0,0E0,0E0,0E0,0E0,0E0,0E0,0E0,0E0],"parents":[2147483647,0,0,1,1,2,2,3,3,4,4,5,5,6,6,7,7,8,8,9,9,10,10,11,11,12,12,14,14,18,18,19,19,20,20,21,21,22,22,23,23,27,27,28,28,30,30,32,32,33,33,34,34,36,36,39,39,41,41],"right_children":[2,4,6,8,10,12,14,16,18,20,22,24,26,-1,28,-1,-1,-1,30,32,34,36,38,40,-1,-1,-1,42,44,-1,46,-1,48,50,52,-1,54,-1,-1,56,-1,58,-1,-1,-1,-1,-1,-1,-1,-1,-1,-1,-1,-1,-1,-1,-1,-1,-1],"split_conditions":[5.5E1,9.62E2,5.244E3,7.29E-1,2.177E3,6E1,7.2E1,3E1,3E0,2.128E3,7.43E-1,4.495E3,3.93E-1,1.779713E-1,9.08E-1,-1.3389585E-2,2.1739392E-1,9.0554826E-2,1.109E3,3E0,6.72E-1,4E1,3E0,4E0,8.709337E-2,3.0936932E-3,-1.3652462E-1,9E-1,1E0,4.8580393E-2,1.968E3,3.9537143E-2,3E-1,5.3E1,4.4E1,1.1010391E-2,5.6E1,2.8261855E-2,-5.6994956E-2,3.303E3,-8.276812E-2,8.444E3,1.5459564E-2,-1.2385768E-2,6.2146112E-2,-8.350988E-2,1.0547881E-2,1.1461043E-2,-1.1703976E-1,1.19381435E-1,-2.1292878E-2,6.663295E-4,-7.039077E-2,1.7744897E-1,1.165724E-2,3.4013264E-2,-2.5209714E-2,-1.1103907E-1,-0E0],"split_indices":[6,3,5,7,3,6,6,0,1,5,7,5,4,0,4,0,0,0,5,1,7,0,1,1,0,0,0,7,8,0,5,0,7,6,6,0,0,0,0,5,0,5,0,0,0,0,0,0,0,0,0,0,0,0,0,0,0,0,0],"split_type":[0,0,0,0,0,0,0,0,0,0,0,0,0,0,0,0,0,0,0,0,0,0,0,0,0,0,0,0,0,0,0,0,0,0,0,0,0,0,0,0,0,0,0,0,0,0,0,0,0,0,0,0,0,0,0,0,0,0,0],"sum_hessian":[6.323752E2,2.798618E2,3.5251337E2,1.383092E2,1.415526E2,3.0309863E2,4.9414745E1,1.11420654E2,2.6888544E1,1.0501663E2,3.6535965E1,3.370063E1,2.6939798E2,1.1739285E1,3.767546E1,1.1299497E0,1.1029071E2,4.68298E0,2.2205564E1,7.415166E1,3.0864975E1,2.5858011E1,1.0677954E1,3.0314856E1,3.3857741E0,1.1516011E0,2.682464E2,3.360343E1,4.0720267E0,2.0907927E0,2.0114773E1,4.583876E0,6.956779E1,1.7548615E1,1.331636E1,4.0731707E0,2.1784842E1,1.5257092E0,9.152245E0,7.9806404E0,2.2334217E1,3.1941525E1,1.6619081E0,1.9976687E0,2.074358E0,1.0396429E1,9.718343E0,2.7459137E0,6.682187E1,1.5757484E1,1.7911294E0,3.4128108E0,9.903549E0,1.8369713E1,3.4151292E0,5.6681476E0,2.3124926E0,3.0547255E1,1.3942701E0],"tree_param":{"num_deleted":"0","num_feature":"10","num_nodes":"59","size_leaf_vector":"1"}},{"base_weights":[-1.6036084E-1,5.17702E-1,-8.107435E-1,1.3014386E0,-6.488806E-2,-9.7419846E-1,7.5322606E-2,-0E0,1.4299223E0,1.4721481E0,-3.2757336E-1,6.450896E-2,-1.0202637E0,9.21652E-1,-4.3263072E-1,5.253634E-2,-3.1550947E-1,1.5249034E0,-3.5548683E-2,2.0106325E-1,-4.259054E-3,-6.905031E-1,2.062652E-1,-3.5934858E-2,6.665444E-2,-1.2842403E-1,-1.0486099E0,-7.0580863E-3,1.2800813E-1,-5.9457153E-1,4.8651323E-2,8.702295E-3,-5.3159606E-2,1.2505826E-2,1.9423583E-1,2.511212E-2,-2.51633E-2,7.5547196E-2,-7.9406565E-1,-5.1466024E-1,8.2299215E-1,1.8555809E-2,-4.1110665E-2,-1.3502382E-1,-3.7776423E-1,-6.7250055E-1,2.1118987E-2,6.2358164E-4,-1.0885673E-1,1.5020929E-2,-7.4037105E-2,1.3994034E-1,-3.0689415E-2,-8.4268115E-2,4.0522333E-2,2.7970995E-3,-8.765679E-2],"categories":[],"categories_nodes":[],"categories_segments":[],"categories_sizes":[],"default_left":[0,0,0,0,0,0,0,0,0,0,0,0,0,0,0,0,0,0,0,0,0,0,0,0,0,0,0,0,0,0,0,0,0,0,0,0,0,0,0,0,0,0,0,0,0,0,0,0,0,0,0,0,0,0,0,0,0],"id":4,"left_children":[1,3,5,7,9,11,13,15,17,19,21,23,25,27,29,-1,31,33,35,-1,-1,37,39,-1,-1,41,43,-1,-1,45,-1,-1,-1,-1,-1,-1,-1,-1,47,49,51,-1,-1,-1,53,55,-1,-1,-1,-1,-1,-1,-1,-1,-1,-1,-1],"loss_changes":[2.7232156E2,1.397701E2,4.658174E1,2.1727982E1,7.809038E1,1.374408E1,2.8793427E1,4.1515307E0,1.7555222E1,7.5151825E0,3.339709E1,4.9654326E0,4.733246E0,3.6464767E0,7.9827886E0,0E0,1.2020205E0,4.5507812E0,1.0523996E0,0E0,0E0,1.8274158E1,3.6905437E1,0E0,0E0,1.6396077E0,2.210144E0,0E0,0E0,3.654252E0,0E0,0E0,0E0,0E0,0E0,0E0,0E0,0E0,6.9278107E0,2.9573736E0,1.732608E1,0E0,0E0,0E0,8.54686E0,1.333744E0,0E0,0E0,0E0,0E0,0E0,0E0,0E0,0E0,0E0,0E0,0E0],"parents":[2147483647,0,0,1,1,2,2,3,3,4,4,5,5,6,6,7,7,8,8,9,9,10,10,11,11,12,12,13,13,14,14,16,16,17,17,18,18,21,21,22,22,25,25,26,26,29,29,38,38,39,39,40,40,44,44,45,45],"right_children":[2,4,6,8,10,12,14,16,18,20,22,24,26,28,30,-1,32,34,36,-1,-1,38,40,-1,-1,42,44,-1,-1,46,-1,-1,-1,-1,-1,-1,-1,-1,48,50,52,-1,-1,-1,54,56,-1,-1,-1,-1,-1,-1,-1,-1,-1,-1,-1],"split_conditions":[2.95E3,6.03E2,5.244E3,2E0,3E0,4.91E-1,7.72E2,1.371E3,8.86E-1,9.25E-1,1.968E3,9.23E-1,3.148E3,2E0,9.39E-1,5.253634E-2,4.44E-1,3.4E1,1.083E3,2.0106325E-1,-4.259054E-3,9.61E2,4E1,-3.5934858E-2,6.665444E-2,7.98E2,9.73E-1,-7.0580863E-3,1.2800813E-1,9.38E-1,4.8651323E-2,8.702295E-3,-5.3159606E-2,1.2505826E-2,1.9423583E-1,2.511212E-2,-2.51633E-2,7.5547196E-2,4.12E-1,5.38E-1,8.9E-1,1.8555809E-2,-4.1110665E-2,-1.3502382E-1,4.633E3,5.89E-1,2.1118987E-2,6.2358164E-4,-1.0885673E-1,1.5020929E-2,-7.4037105E-2,1.3994034E-1,-3.0689415E-2,-8.4268115E-2,4.0522333E-2,2.7970995E-3,-8.765679E-2],"split_indices":[5,3,5,2,1,7,3,5,7,7,5,4,5,2,4,0,7,0,5,0,0,5,0,0,0,3,4,0,0,7,0,0,0,0,0,0,0,0,4,4,4,0,0,0,5,4,0,0,0,0,0,0,0,0,0,0,0],"split_type":[0,0,0,0,0,0,0,0,0,0,0,0,0,0,0,0,0,0,0,0,0,0,0,0,0,0,0,0,0,0,0,0,0,0,0,0,0,0,0,0,0,0,0,0,0,0,0,0,0,0,0,0,0,0,0,0,0],"sum_hessian":[5.9839136E2,2.9364633E2,3.0474503E2,1.2039478E2,1.7325157E2,2.568268E2,4.7918198E1,1.1696557E1,1.0869822E2,1.8583197E1,1.5466837E2,1.0398005E1,2.4642882E2,1.5294851E1,3.262335E1,3.5937517E0,8.102805E0,1.0195282E2,6.7454033E0,1.6450714E1,2.1324823E0,9.079969E1,6.3868683E1,7.6362305E0,2.7617743E0,9.6436615E0,2.3678516E2,1.697551E0,1.35973E1,2.990735E1,2.7159972E0,1.929482E0,6.173323E0,4.129499E0,9.782332E1,1.0279357E0,5.717468E0,2.9489322E0,8.785075E1,2.9905628E1,3.396305E1,4.3723717E0,5.2712903E0,2.170179E2,1.9767254E1,2.8645247E1,1.2621032E0,8.815989E0,7.903477E1,2.4029472E0,2.7502682E1,2.627358E1,7.6894727E0,1.4444783E1,5.3224707E0,1.0117662E0,2.763348E1],"tree_param":{"num_deleted":"0","num_feature":"10","num_nodes":"57","size_leaf_vector":"1"}},{"base_weights":[-1.5448742E-1,5.0936663E-1,-8.0761576E-1,1.6759043E0,1.8412691E-1,-9.811535E-1,1.4246918E-1,2.1233617E-1,-1.0683329E-3,-4.3015218E-1,8.04274E-1,-0E0,-1.0039382E0,1.7092234E-1,-5.867639E-1,1.4125279E-1,-6.445781E-1,1.2471997E0,-9.967788E-2,-3.7665244E-2,3.9483625E-2,-1.2741366E-1,-1.2805854E-1,1.2408267E-1,-7.841832E-1,4.763493E-1,-8.271188E-1,1.3837368E0,-4.4150623E-3,2.569108E-1,-7.194433E-2,-3.6739856E-2,2.727109E-2,-2.5048727E-2,4.6249278E-2,-1.0280866E-1,3.5123741E-3,-2.1022985E-2,9.240946E-2,-2.444131E-2,-1.17210835E-1,6.8942056E-5,1.7873369E-1,2.7420225E-2,-3.1983897E-2,7.2012536E-2,-5.6944694E-2],"categories":[],"categories_nodes":[],"categories_segments":[],"categories_sizes":[],"default_left":[0,0,0,0,0,0,0,0,0,0,0,0,0,0,0,0,0,0,0,0,0,0,0,0,0,0,0,0,0,0,0,0,0,0,0,0,0,0,0,0,0,0,0,0,0,0,0],"id":5,"left_children":[1,3,5,7,9,11,13,-1,-1,15,17,19,21,-1,23,-1,25,27,29,-1,-1,-1,31,33,35,37,39,41,43,45,-1,-1,-1,-1,-1,-1,-1,-1,-1,-1,-1,-1,-1,-1,-1,-1,-1],"loss_changes":[2.5821967E2,1.08747665E2,5.1039444E1,4.735489E0,9.598742E1,5.428543E0,5.7136185E1,0E0,0E0,4.9997246E1,5.1480522E1,2.4531727E0,3.528122E0,0E0,6.910836E0,0E0,2.8287079E1,1.502327E1,1.0068896E1,0E0,0E0,0E0,1.7194338E0,2.1577003E0,1.7636662E0,5.3520126E0,5.6957397E0,5.6218567E0,1.5777097E0,1.0691895E1,0E0,0E0,0E0,0E0,0E0,0E0,0E0,0E0,0E0,0E0,0E0,0E0,0E0,0E0,0E0,0E0,0E0],"parents":[2147483647,0,0,1,1,2,2,3,3,4,4,5,5,6,6,9,9,10,10,11,11,12,12,14,14,16,16,17,17,18,18,22,22,23,23,24,24,25,25,26,26,27,27,28,28,29,29],"right_children":[2,4,6,8,10,12,14,-1,-1,16,18,20,22,-1,24,-1,26,28,30,-1,-1,-1,32,34,36,38,40,42,44,46,-1,-1,-1,-1,-1,-1,-1,-1,-1,-1,-1,-1,-1,-1,-1,-1,-1],"split_conditions":[5.7E1,3E0,5.402E3,1.292E0,1.968E3,2.165E3,7.2E1,2.1233617E-1,-1.0683329E-3,1.028E3,6.55E-1,2.033E3,2.461E3,1.7092234E-1,5.85E2,1.4125279E-1,4.12E-1,5.3E1,8.93E-1,-3.7665244E-2,3.9483625E-2,-1.2741366E-1,9.88E-1,7.31E-1,5.6E1,1.484E3,5.33E-1,2.017E3,9.96E2,3.148E3,-7.194433E-2,-3.6739856E-2,2.727109E-2,-2.5048727E-2,4.6249278E-2,-1.0280866E-1,3.5123741E-3,-2.1022985E-2,9.240946E-2,-2.444131E-2,-1.17210835E-1,6.8942056E-5,1.7873369E-1,2.7420225E-2,-3.1983897E-2,7.2012536E-2,-5.6944694E-2],"split_indices":[6,1,5,7,5,5,6,0,0,5,7,5,3,0,3,0,4,6,4,0,0,0,4,7,0,5,4,5,3,5,0,0,0,0,0,0,0,0,0,0,0,0,0,0,0,0,0],"split_type":[0,0,0,0,0,0,0,0,0,0,0,0,0,0,0,0,0,0,0,0,0,0,0,0,0,0,0,0,0,0,0,0,0,0,0,0,0,0,0,0,0,0,0,0,0,0,0],"sum_hessian":[5.764526E2,2.866511E2,2.8980148E2,5.3492645E1,2.3315845E2,2.4510777E2,4.4693714E1,5.2393322E1,1.0993253E0,1.1831928E2,1.1483916E2,6.0471473E0,2.3906062E2,1.3574239E1,3.1119476E1,8.997448E0,1.0932184E2,7.488694E1,3.9952217E1,3.7500377E0,2.2971096E0,2.3063249E2,8.428134E0,7.1340585E0,2.3985418E1,1.2844323E1,9.6477516E1,6.6869644E1,8.017293E0,2.507745E1,1.4874767E1,7.3700733E0,1.0580603E0,3.229648E0,3.9044104E0,2.2963884E1,1.0215329E0,4.422697E0,8.421627E0,1.9854082E1,7.662343E1,3.3559427E0,6.3513702E1,4.1181855E0,3.8991072E0,1.8882298E1,6.1951513E0],"tree_param":{"num_deleted":"0","num_feature":"10","num_nodes":"47","size_leaf_vector":"1"}},{"base_weights":[-1.6961738E-1,4.552348E-1,-7.977277E-1,1.008073E0,-1.8004175E-2,-9.499988E-1,1.6882014E-2,-9.6968114E-2,1.13412E0,-5.2312994E-1,6.720148E-1,-2.7500507E-1,-1.0111212E0,8.331387E-1,-6.724186E-1,4.0392376E-2,-3.324299E-1,1.2190661E0,-3.3747546E-2,7.062307E-2,-6.4921206E-1,1.194917E0,-1.4979659E-1,5.1925007E-2,-4.695155E-1,-0E0,-1.268643E-1,1.3584054E-1,5.2172537E-3,-9.125247E-2,5.954964E-3,2.085678E-2,-6.1909497E-2,-0E0,1.2421404E0,1.5097141E-1,-8.501022E-1,1.6069907E-1,-2.0238435E-2,2.758934E-1,-4.0240508E-1,-7.06997E-2,2.336036E-2,-3.06085E-2,3.3931643E-2,1.6013326E-1,3.474293E-2,6.841733E-2,-4.214191E-2,-1.1200974E-1,-7.525535E-3,4.940088E-2,-3.5989236E-3,-6.7625366E-2,1.8224368E-2],"categories":[],"categories_nodes":[],"categories_segments":[],"categories_sizes":[],"default_left":[0,0,0,0,0,0,0,0,0,0,0,0,0,0,0,0,0,0,0,0,0,0,0,0,0,0,0,0,0,0,0,0,0,0,0,0,0,0,0,0,0,0,0,0,0,0,0,0,0,0,0,0,0,0,0],"id":6,"left_children":[1,3,5,7,9,11,13,15,17,19,21,23,25,27,29,-1,31,33,-1,-1,35,37,39,-1,41,-1,-1,-1,43,-1,-1,-1,-1,-1,45,47,49,-1,-1,51,53,-1,-1,-1,-1,-1,-1,-1,-1,-1,-1,-1,-1,-1,-1],"loss_changes":[2.2285448E2,7.533186E1,3.5527084E1,1.9888016E1,6.020895E1,6.66951E0,3.5623253E1,3.2558277E0,1.78844E1,1.7377724E1,3.3436756E1,6.453705E0,2.9892578E0,5.864933E0,2.1682549E0,0E0,2.5741274E0,3.283142E0,0E0,0E0,1.6681305E1,8.800682E0,5.0618024E0,0E0,3.2534418E0,0E0,0E0,0E0,1.8192679E0,0E0,0E0,0E0,0E0,0E0,1.322403E0,7.16741E0,2.3795052E0,0E0,0E0,9.542291E-1,3.0864506E0,0E0,0E0,0E0,0E0,0E0,0E0,0E0,0E0,0E0,0E0,0E0,0E0,0E0,0E0],"parents":[2147483647,0,0,1,1,2,2,3,3,4,4,5,5,6,6,7,7,8,8,9,9,10,10,11,11,12,12,13,13,14,14,16,16,17,17,20,20,21,21,22,22,24,24,28,28,34,34,35,35,36,36,39,39,40,40],"right_children":[2,4,6,8,10,12,14,16,18,20,22,24,26,28,30,-1,32,34,-1,-1,36,38,40,-1,42,-1,-1,-1,44,-1,-1,-1,-1,-1,46,48,50,-1,-1,52,54,-1,-1,-1,-1,-1,-1,-1,-1,-1,-1,-1,-1,-1,-1],"split_conditions":[5.6E1,4E0,5.244E3,2E0,2.078E3,6E1,7.9E1,1.318E3,1.059E0,1.028E3,4.6E1,3E0,2.165E3,1.002E3,8.444E3,4.0392376E-2,5.62E-1,3.4E1,-3.3747546E-2,7.062307E-2,4.87E-1,1.235E0,5.41E2,5.1925007E-2,4.512E3,-0E0,-1.268643E-1,1.3584054E-1,3E0,-9.125247E-2,5.954964E-3,2.085678E-2,-6.1909497E-2,-0E0,5.2E1,5.2E1,2.481E3,1.6069907E-1,-2.0238435E-2,2.747E3,2.076E3,-7.06997E-2,2.336036E-2,-3.06085E-2,3.3931643E-2,1.6013326E-1,3.474293E-2,6.841733E-2,-4.214191E-2,-1.1200974E-1,-7.525535E-3,4.940088E-2,-3.5989236E-3,-6.7625366E-2,1.8224368E-2],"split_indices":[6,1,5,2,5,6,6,5,4,5,6,1,5,3,5,0,4,0,0,0,4,4,3,0,5,0,0,0,2,0,0,0,0,0,6,0,3,0,0,5,3,0,0,0,0,0,0,0,0,0,0,0,0,0,0],"split_type":[0,0,0,0,0,0,0,0,0,0,0,0,0,0,0,0,0,0,0,0,0,0,0,0,0,0,0,0,0,0,0,0,0,0,0,0,0,0,0,0,0,0,0,0,0,0,0,0,0,0,0,0,0,0,0],"sum_hessian":[5.4887756E2,2.7618866E2,2.726889E2,1.2270563E2,1.5348302E2,2.2877592E2,4.3912964E1,1.2488817E1,1.1021681E2,9.027581E1,6.320721E1,2.3917385E1,2.0485855E2,1.9429077E1,2.4483889E1,2.5724988E0,9.916318E0,1.0540336E2,4.813448E0,5.5124044E0,8.4763405E1,3.622348E1,2.6983732E1,2.3744812E0,2.1542904E1,2.3133683E0,2.0254518E2,1.2030144E1,7.398933E0,2.2773779E1,1.7101101E0,1.9044417E0,8.011876E0,2.1075778E0,1.03295784E2,1.7119383E1,6.764402E1,3.436702E1,1.8564605E0,9.167381E0,1.781635E1,2.0286509E1,1.2563967E0,3.5004392E0,3.8984938E0,9.468845E1,8.60733E0,9.1797695E0,7.939614E0,6.1591576E1,6.0524487E0,5.2927938E0,3.8745873E0,1.4725352E1,3.0909982E0],"tree_param":{"num_deleted":"0","num_feature":"10","num_nodes":"55","size_leaf_vector":"1"}},{"base_weights":[-1.1534979E-1,3.9125004E-1,-8.3319014E-1,1.4257692E0,1.0557489E-1,-1.0054142E0,-5.0235514E-2,1.8657835E-1,-1.6588888E-3,5.441741E-1,-4.8245844E-1,1.0877021E-2,-1.2651192E-1,7.364118E-1,-6.615813E-1,4.544968E-2,9.7859615E-1,-8.122914E-1,-1.6338228E-1,-1.4560473E-3,8.4518E-1,-9.181651E-2,3.4978376E-3,5.076846E-1,-3.2845858E-1,1.1779883E0,-0E0,4.8042398E-2,-1.181204E-1,2.984814E-1,-4.67996E-1,-0E0,1.1768862E-1,8.726597E-2,-2.6600262E-2,-6.812336E-2,4.105816E-2,-2.1795958E-2,1.5787397E-1,3.4508426E-2,-2.528535E-2,6.643645E-2,-2.7583722E-2,-7.571814E-2,3.206031E-2],"categories":[],"categories_nodes":[],"categories_segments":[],"categories_sizes":[],"default_left":[0,0,0,0,0,0,0,0,0,0,0,0,0,0,0,0,0,0,0,0,0,0,0,0,0,0,0,0,0,0,0,0,0,0,0,0,0,0,0,0,0,0,0,0,0],"id":7,"left_children":[1,3,5,7,9,11,13,-1,-1,15,17,-1,-1,19,21,23,25,27,29,-1,31,-1,-1,33,35,37,39,-1,-1,41,43,-1,-1,-1,-1,-1,-1,-1,-1,-1,-1,-1,-1,-1,-1],"loss_changes":[1.9622388E2,9.1736626E1,2.9170288E1,8.48674E0,6.94467E1,4.2473297E0,2.9089285E1,0E0,0E0,3.2433712E1,1.0514219E1,0E0,0E0,2.5634756E0,2.3203773E0,1.5847182E1,1.603817E1,1.2865631E1,1.1460709E1,0E0,2.021328E0,0E0,0E0,7.44454E0,9.244553E0,1.1328751E1,1.856815E0,0E0,0E0,5.452595E0,6.5683556E0,0E0,0E0,0E0,0E0,0E0,0E0,0E0,0E0,0E0,0E0,0E0,0E0,0E0,0E0],"parents":[2147483647,0,0,1,1,2,2,3,3,4,4,5,5,6,6,9,9,10,10,13,13,14,14,15,15,16,16,17,17,18,18,20,20,23,23,24,24,25,25,26,26,29,29,30,30],"right_children":[2,4,6,8,10,12,14,-1,-1,16,18,-1,-1,20,22,24,26,28,30,-1,32,-1,-1,34,36,38,40,-1,-1,42,44,-1,-1,-1,-1,-1,-1,-1,-1,-1,-1,-1,-1,-1,-1],"split_conditions":[6.2E1,3E0,5.212E3,1.026E0,6.32E-1,2.165E3,7.9E1,1.8657835E-1,-1.6588888E-3,2.017E3,1.931E3,1.0877021E-2,-1.2651192E-1,2E0,9.12E-1,5.41E2,5.1E1,1.028E3,8.76E2,-1.4560473E-3,7.12E-1,-9.181651E-2,3.4978376E-3,4.4E1,2.19E3,3.2E1,2.14E2,4.8042398E-2,-1.181204E-1,3.148E3,2.361E3,-0E0,1.1768862E-1,8.726597E-2,-2.6600262E-2,-6.812336E-2,4.105816E-2,-2.1795958E-2,1.5787397E-1,3.4508426E-2,-2.528535E-2,6.643645E-2,-2.7583722E-2,-7.571814E-2,3.206031E-2],"split_indices":[6,1,5,7,7,5,6,0,0,5,5,0,0,2,4,3,6,5,3,0,4,0,0,6,3,0,3,0,0,5,3,0,0,0,0,0,0,0,0,0,0,0,0,0,0],"split_type":[0,0,0,0,0,0,0,0,0,0,0,0,0,0,0,0,0,0,0,0,0,0,0,0,0,0,0,0,0,0,0,0,0,0,0,0,0,0,0,0,0,0,0,0,0],"sum_hessian":[5.2079614E2,3.0759604E2,2.1320006E2,5.79287E1,2.4966736E2,1.7211676E2,4.1083305E1,5.4720184E1,3.2085133E0,1.437805E2,1.05886856E2,1.4015088E0,1.7071526E2,1.6834122E1,2.4249182E1,7.230783E1,7.147267E1,4.414268E1,6.1744175E1,2.796077E0,1.4038045E1,2.1596636E1,2.6525455E0,3.1234037E1,4.107379E1,5.78866E1,1.3586069E1,2.5736136E0,4.156907E1,2.4129124E1,3.7615047E1,2.680597E0,1.1357448E1,2.5155712E1,6.0783257E0,3.239358E1,8.680208E0,3.0305352E0,5.4856064E1,3.8920624E0,9.694007E0,1.6874525E1,7.2545996E0,3.3150135E1,4.4649158E0],"tree_param":{"num_deleted":"0","num_feature":"10","num_nodes":"45","size_leaf_vector":"1"}},{"base_weights":[-8.3084695E-2,3.6889434E-1,-8.589679E-1,1.273669E0,1.2360091E-1,-1.23694085E-1,-1.3816746E-1,1.6733463E-1,-3.5109757E-3,6.092076E-1,-3.4040523E-1,-4.4409975E-1,8.932151E-2,9.999811E-1,1.5806061E-1,1.2938023E-1,-5.534277E-1,4.6449862E-2,-6.616922E-1,5.7518296E-3,1.323466E-1,-1.5522577E-1,7.7122957E-1,-4.0707195E-1,4.7273424E-1,-6.574788E-1,1.4926872E-1,-7.2587186E-1,1.1317516E-2,-4.8637826E-2,4.1499604E-2,-5.2662846E-3,1.1206645E-1,4.266457E-2,-8.1544116E-2,9.655341E-2,-2.1300815E-2,3.4237087E-2,-8.791827E-2,-2.6872104E-2,5.595003E-2,-9.574595E-2,2.7955133E-3],"categories":[],"categories_nodes":[],"categories_segments":[],"categories_sizes":[],"default_left":[0,0,0,0,0,0,0,0,0,0,0,0,0,0,0,0,0,0,0,0,0,0,0,0,0,0,0,0,0,0,0,0,0,0,0,0,0,0,0,0,0,0,0],"id":8,"left_children":[1,3,5,7,9,-1,11,-1,-1,13,15,17,-1,19,21,23,25,-1,27,-1,-1,29,31,33,35,37,39,41,-1,-1,-1,-1,-1,-1,-1,-1,-1,-1,-1,-1,-1,-1,-1],"loss_changes":[1.837377E2,7.1570145E1,1.7543396E1,7.760689E0,6.3387817E1,0E0,1.4235572E1,0E0,0E0,2.2148975E1,1.5350298E1,9.2499075E0,0E0,3.69516E0,1.5871156E1,1.1553763E1,8.601044E0,0E0,2.509284E0,0E0,0E0,7.9802356E0,3.66889E0,7.0654955E0,8.805562E0,6.467148E0,3.3098683E0,1.5866928E0,0E0,0E0,0E0,0E0,0E0,0E0,0E0,0E0,0E0,0E0,0E0,0E0,0E0,0E0,0E0],"parents":[2147483647,0,0,1,1,2,2,3,3,4,4,6,6,9,9,10,10,11,11,13,13,14,14,15,15,16,16,18,18,21,21,22,22,23,23,24,24,25,25,26,26,27,27],"right_children":[2,4,6,8,10,-1,12,-1,-1,14,16,18,-1,20,22,24,26,-1,28,-1,-1,30,32,34,36,38,40,42,-1,-1,-1,-1,-1,-1,-1,-1,-1,-1,-1,-1,-1,-1,-1],"split_conditions":[6.5E1,3E0,5.524E3,1.026E0,5.95E-1,-1.23694085E-1,4E0,1.6733463E-1,-3.5109757E-3,7.54E2,5.85E2,7.2E1,8.932151E-2,2E0,2.177E3,1.968E3,2.461E3,4.6449862E-2,9.19E-1,5.7518296E-3,1.323466E-1,2.307E3,2E0,1.109E3,2.872E3,9.61E2,2.257E3,8.444E3,1.1317516E-2,-4.8637826E-2,4.1499604E-2,-5.2662846E-3,1.1206645E-1,4.266457E-2,-8.1544116E-2,9.655341E-2,-2.1300815E-2,3.4237087E-2,-8.791827E-2,-2.6872104E-2,5.595003E-2,-9.574595E-2,2.7955133E-3],"split_indices":[6,1,5,7,7,0,1,0,0,3,3,6,0,2,3,5,3,0,4,0,0,5,2,5,5,5,5,5,0,0,0,0,0,0,0,0,0,0,0,0,0,0,0],"split_type":[0,0,0,0,0,0,0,0,0,0,0,0,0,0,0,0,0,0,0,0,0,0,0,0,0,0,0,0,0,0,0,0,0,0,0,0,0,0,0,0,0,0,0],"sum_hessian":[5.0501752E2,3.2202017E2,1.8299734E2,5.971309E1,2.6230707E2,1.4986687E2,3.3130486E1,5.6338646E1,3.3744428E0,1.2708471E2,1.3522237E2,2.8190817E1,4.9396663E0,6.1353508E1,6.57312E1,4.2824745E1,9.239763E1,4.0925827E0,2.4098236E1,5.51705E0,5.5836456E1,4.7880066E1,1.7851135E1,1.5588708E1,2.7236036E1,8.148476E1,1.091287E1,2.2982986E1,1.1152489E0,3.4075184E1,1.3804882E1,3.03573E0,1.4815405E1,2.6283972E0,1.2960311E1,1.7489613E1,9.746425E0,1.7058711E0,7.9778885E1,5.6106935E0,5.3021774E0,2.18129E1,1.1700858E0],"tree_param":{"num_deleted":"0","num_feature":"10","num_nodes":"43","size_leaf_vector":"1"}},{"base_weights":[-9.450658E-2,3.4662914E-1,-7.789354E-1,1.1468738E0,1.1296791E-1,-9.5852053E-1,9.373521E-3,1.4807908E-1,-0E0,4.667134E-1,-3.8652268E-1,-0E0,-1.20155774E-1,7.4638903E-1,-4.68694E-1,-3.1021559E-3,8.6576885E-1,1.1985199E-1,-5.880867E-1,-1.0740174E-2,1.0996637E-1,3.978875E-2,-6.52911E-1,9.6284315E-2,-2.3354389E-1,-2.6295397E-2,1.0296712E0,-2.9565385E-1,3.8642633E-1,3.266092E-2,-6.4618677E-1,-6.9715023E-1,2.6853322E-3,3.7964165E-2,-7.967412E-2,1.4558615E-1,8.893312E-3,4.6704233E-2,-7.3629685E-2,8.478958E-2,-2.8095298E-2,-9.261955E-2,-0E0,-9.252373E-2,1.1205035E-3],"categories":[],"categories_nodes":[],"categories_segments":[],"categories_sizes":[],"default_left":[0,0,0,0,0,0,0,0,0,0,0,0,0,0,0,0,0,0,0,0,0,0,0,0,0,0,0,0,0,0,0,0,0,0,0,0,0,0,0,0,0,0,0,0,0],"id":9,"left_children":[1,3,5,7,9,11,13,-1,-1,15,17,-1,-1,19,21,23,25,27,29,-1,-1,-1,31,-1,33,-1,35,37,39,-1,41,43,-1,-1,-1,-1,-1,-1,-1,-1,-1,-1,-1,-1,-1],"loss_changes":[1.4845773E2,5.43303E1,2.7681618E1,3.495102E0,4.4729214E1,1.8803253E0,1.9302822E1,0E0,0E0,2.793269E1,1.1638599E1,0E0,0E0,3.5869112E0,6.9306016E0,1.5350468E1,1.6554504E1,5.3011823E0,5.634657E0,0E0,0E0,0E0,1.2996569E0,0E0,1.6846722E1,0E0,8.632263E0,6.181483E0,6.712055E0,0E0,5.19195E0,1.356041E0,0E0,0E0,0E0,0E0,0E0,0E0,0E0,0E0,0E0,0E0,0E0,0E0,0E0],"parents":[2147483647,0,0,1,1,2,2,3,3,4,4,5,5,6,6,9,9,10,10,13,13,14,14,15,15,16,16,17,17,18,18,22,22,24,24,26,26,27,27,28,28,30,30,31,31],"right_children":[2,4,6,8,10,12,14,-1,-1,16,18,-1,-1,20,22,24,26,28,30,-1,-1,-1,32,-1,34,-1,36,38,40,-1,42,44,-1,-1,-1,-1,-1,-1,-1,-1,-1,-1,-1,-1,-1],"split_conditions":[6.1E1,3E0,5.402E3,1.026E0,6.32E-1,2.109E3,5.85E2,1.4807908E-1,-0E0,2.052E3,5.69E2,-0E0,-1.20155774E-1,6.58E-1,6.9E1,1.15E3,3.7E1,1.883E3,9.61E2,-1.0740174E-2,1.0996637E-1,3.978875E-2,5E0,9.6284315E-2,5.06E-1,-2.6295397E-2,5.1E1,1.028E3,2.84E3,3.266092E-2,2.375E3,8.444E3,2.6853322E-3,3.7964165E-2,-7.967412E-2,1.4558615E-1,8.893312E-3,4.6704233E-2,-7.3629685E-2,8.478958E-2,-2.8095298E-2,-9.261955E-2,-0E0,-9.252373E-2,1.1205035E-3],"split_indices":[6,1,5,7,7,5,3,0,0,5,3,0,0,7,6,5,0,5,5,0,0,0,1,0,4,0,6,5,5,0,3,5,0,0,0,0,0,0,0,0,0,0,0,0,0],"split_type":[0,0,0,0,0,0,0,0,0,0,0,0,0,0,0,0,0,0,0,0,0,0,0,0,0,0,0,0,0,0,0,0,0,0,0,0,0,0,0,0,0,0,0,0,0],"sum_hessian":[4.728546E2,2.9010168E2,1.8275293E2,5.666242E1,2.3343927E2,1.4752971E2,3.5223217E1,5.3908974E1,2.7534466E0,1.3746558E2,9.5973694E1,1.5072125E0,1.4602249E2,1.2030393E1,2.3192825E1,6.711178E1,7.03538E1,2.7914642E1,6.805905E1,1.8940239E0,1.0136369E1,2.6460295E0,2.0546795E1,9.709613E0,5.7402164E1,8.609743E0,6.1744057E1,9.950746E0,1.7963898E1,1.7538011E0,6.630525E1,1.9497509E1,1.0492858E0,2.5408186E1,3.199398E1,5.139424E1,1.0349816E1,1.8931302E0,8.057615E0,1.1749124E1,6.214774E0,5.6444542E1,9.860711E0,1.8203045E1,1.2944646E0],"tree_param":{"num_deleted":"0","num_feature":"10","num_nodes":"45","size_leaf_vector":"1"}},{"base_weights":[-5.7956267E-2,3.1925422E-1,-7.7475387E-1,8.3648247E-1,-6.497921E-2,-1.21392764E-1,-3.9598625E-3,9.168709E-1,-4.2326577E-2,-2.6347822E-1,7.216566E-1,-5.0527996E-1,5.228894E-1,6.593827E-2,1.0045215E0,2.9914012E-2,-2.5396282E-2,4.042886E-1,-4.1004297E-1,1.1329973E-1,-1.5278761E-2,2.041862E-2,-6.0673857E-1,-4.1370285E-3,9.447661E-2,4.5447845E-2,-1.970022E-2,-0E0,1.0173031E0,-6.6190705E-2,6.298985E-1,-4.7322878E-1,4.2024955E-2,1.3399674E-3,-8.0528684E-2,4.7131576E-2,1.3862503E-1,3.836456E-2,-4.361644E-2,-1.9112665E-2,9.5558E-2,4.900116E-2,-6.5604486E-2],"categories":[],"categories_nodes":[],"categories_segments":[],"categories_sizes":[],"default_left":[0,0,0,0,0,0,0,0,0,0,0,0,0,0,0,0,0,0,0,0,0,0,0,0,0,0,0,0,0,0,0,0,0,0,0,0,0,0,0,0,0,0,0],"id":10,"left_children":[1,3,5,7,9,-1,11,13,15,17,19,21,23,25,27,-1,-1,29,31,-1,-1,-1,33,-1,-1,-1,-1,-1,35,37,39,41,-1,-1,-1,-1,-1,-1,-1,-1,-1,-1,-1],"loss_changes":[1.2646806E2,6.1777885E1,2.5015984E1,1.0016968E1,3.0486807E1,0E0,1.4142654E1,8.031883E0,1.3823392E0,1.675906E1,7.7896385E0,3.0192618E0,3.951768E0,2.1356463E0,1.4559937E0,0E0,0E0,4.039507E0,7.8599014E0,0E0,0E0,0E0,1.0136509E0,0E0,0E0,0E0,0E0,0E0,2.277275E0,3.0733469E0,3.9531012E0,8.229174E0,0E0,0E0,0E0,0E0,0E0,0E0,0E0,0E0,0E0,0E0,0E0],"parents":[2147483647,0,0,1,1,2,2,3,3,4,4,6,6,7,7,8,8,9,9,10,10,11,11,12,12,13,13,14,14,17,17,18,18,22,22,28,28,29,29,30,30,31,31],"right_children":[2,4,6,8,10,-1,12,14,16,18,20,22,24,26,28,-1,-1,30,32,-1,-1,-1,34,-1,-1,-1,-1,-1,36,38,40,42,-1,-1,-1,-1,-1,-1,-1,-1,-1,-1,-1],"split_conditions":[6.5E1,5.41E2,5.212E3,8.78E-1,2.386E3,-1.21392764E-1,7.92E-1,2E0,1.028E3,4.09E-1,8.22E-1,3.4E1,3E0,4.55E-1,3.1E1,2.9914012E-2,-2.5396282E-2,1.606E3,4.503E3,1.1329973E-1,-1.5278761E-2,2.041862E-2,5.85E-1,-4.1370285E-3,9.447661E-2,4.5447845E-2,-1.970022E-2,-0E0,1.685E3,1.191E3,3.6E1,9.61E2,4.2024955E-2,1.3399674E-3,-8.0528684E-2,4.7131576E-2,1.3862503E-1,3.836456E-2,-4.361644E-2,-1.9112665E-2,9.5558E-2,4.900116E-2,-6.5604486E-2],"split_indices":[6,3,5,7,3,0,4,2,5,7,7,0,2,7,0,0,0,5,5,0,0,0,4,0,0,0,0,0,5,5,0,5,0,0,0,0,0,0,0,0,0,0,0],"split_type":[0,0,0,0,0,0,0,0,0,0,0,0,0,0,0,0,0,0,0,0,0,0,0,0,0,0,0,0,0,0,0,0,0,0,0,0,0,0,0,0,0,0,0],"sum_hessian":[4.4859528E2,2.9709332E2,1.5150197E2,1.2219469E2,1.7489864E2,1.1726992E2,3.4232048E1,1.1195901E2,1.0235679E1,1.4517038E2,2.9728256E1,1.8106588E1,1.6125458E1,1.243486E1,9.952415E1,1.1863801E0,9.049298E0,2.2610207E1,1.22560165E2,2.3928654E1,5.7996035E0,1.1048194E0,1.7001768E1,6.8848276E0,9.24063E0,3.4217148E0,9.013145E0,1.3196995E0,9.8204445E1,9.00656E0,1.3603646E1,1.1676903E2,5.791135E0,1.0114847E0,1.5990284E1,2.026051E1,7.794394E1,2.9783468E0,6.028214E0,1.5334579E0,1.20701885E1,3.1285977E0,1.13640434E2],"tree_param":{"num_deleted":"0","num_feature":"10","num_nodes":"43","size_leaf_vector":"1"}},{"base_weights":[-5.8085706E-2,3.2874075E-1,-7.252318E-1,7.7782893E-1,-6.3145477E-3,-9.3279415E-1,9.681702E-3,8.175265E-1,-2.128399E-2,7.044701E-1,-1.8377693E-1,-0E0,-1.171648E-1,9.298593E-2,-4.9536717E-1,3.4091306E-1,9.7998834E-1,-0E0,8.9815634E-1,-3.7056282E-1,5.5324394E-1,1.21765606E-1,-8.39704E-2,1.0978649E-1,-8.079863E-2,6.253721E-3,1.0394722E0,5.1203843E-2,-4.4850063E-2,-0E0,1.1856833E-1,2.3029216E-2,-5.198845E-1,6.931545E-1,-1.7768756E-2,4.3148316E-2,-2.3395475E-2,3.5834834E-2,-5.1519025E-2,8.0346605E-3,1.3687006E-1,3.8502198E-2,-3.434479E-2,3.8512394E-2,-7.289946E-2,-6.5861032E-3,1.0100481E-1],"categories":[],"categories_nodes":[],"categories_segments":[],"categories_sizes":[],"default_left":[0,0,0,0,0,0,0,0,0,0,0,0,0,0,0,0,0,0,0,0,0,0,0,0,0,0,0,0,0,0,0,0,0,0,0,0,0,0,0,0,0,0,0,0,0,0,0],"id":11,"left_children":[1,3,5,7,9,11,13,15,-1,17,19,-1,-1,-1,21,23,25,27,29,31,33,35,-1,-1,37,-1,39,-1,-1,-1,-1,41,43,45,-1,-1,-1,-1,-1,-1,-1,-1,-1,-1,-1,-1,-1],"loss_changes":[1.1815358E2,4.3984062E1,2.6045403E1,6.2911835E0,2.3162964E1,1.6410522E0,2.0948915E1,5.6900787E0,0E0,4.8378506E0,2.2332933E1,0E0,0E0,0E0,4.708968E0,1.1632734E1,3.7817688E0,4.107525E0,1.4992218E0,7.619787E0,4.4272203E0,1.7657253E0,0E0,0E0,5.4920964E0,0E0,3.8556442E0,0E0,0E0,0E0,0E0,4.540682E0,7.050659E0,3.4255304E0,0E0,0E0,0E0,0E0,0E0,0E0,0E0,0E0,0E0,0E0,0E0,0E0,0E0],"parents":[2147483647,0,0,1,1,2,2,3,3,4,4,5,5,6,6,7,7,9,9,10,10,14,14,15,15,16,16,17,17,18,18,19,19,20,20,21,21,24,24,26,26,31,31,32,32,33,33],"right_children":[2,4,6,8,10,12,14,16,-1,18,20,-1,-1,-1,22,24,26,28,30,32,34,36,-1,-1,38,-1,40,-1,-1,-1,-1,42,44,46,-1,-1,-1,-1,-1,-1,-1,-1,-1,-1,-1,-1,-1],"split_conditions":[6.2E1,5.12E2,5.244E3,1.059E0,3E0,2.165E3,7.5E1,1.806E3,-2.128399E-2,1.576E3,2.408E3,-0E0,-1.171648E-1,9.298593E-2,4.29E2,1.083E3,2E0,9.61E2,2E0,1.127E3,8.84E-1,8.3E1,-8.39704E-2,1.0978649E-1,4E0,6.253721E-3,3.7E1,5.1203843E-2,-4.4850063E-2,-0E0,1.1856833E-1,1E0,1.028E3,2E0,-1.7768756E-2,4.3148316E-2,-2.3395475E-2,3.5834834E-2,-5.1519025E-2,8.0346605E-3,1.3687006E-1,3.8502198E-2,-3.434479E-2,3.8512394E-2,-7.289946E-2,-6.5861032E-3,1.0100481E-1],"split_indices":[6,3,5,4,1,5,6,5,0,5,3,0,0,0,3,5,2,5,2,3,4,6,0,0,1,0,0,0,0,0,0,8,5,2,0,0,0,0,0,0,0,0,0,0,0,0,0],"split_type":[0,0,0,0,0,0,0,0,0,0,0,0,0,0,0,0,0,0,0,0,0,0,0,0,0,0,0,0,0,0,0,0,0,0,0,0,0,0,0,0,0,0,0,0,0,0,0],"sum_hessian":[4.3866318E2,2.8041635E2,1.5824681E2,1.1483516E2,1.655812E2,1.2176184E2,3.6484966E1,1.1189417E2,2.9409795E0,2.6925335E1,1.3865587E2,1.6091468E0,1.20152695E2,1.3190488E1,2.329448E1,3.6643787E1,7.525039E1,8.08366E0,1.8841677E1,1.148597E2,2.3796171E1,5.570428E0,1.772405E1,1.1732444E1,2.4911345E1,5.9776897E0,6.92727E1,3.3578892E0,4.7257705E0,1.7383476E0,1.7103329E1,3.3152714E1,8.170699E1,2.0301834E1,3.4943361E0,3.2395499E0,2.3308783E0,1.1934263E1,1.2977081E1,5.881169E0,6.339153E1,1.7391094E1,1.5761619E1,3.181889E0,7.85251E1,3.1816247E0,1.712021E1],"tree_param":{"num_deleted":"0","num_feature":"10","num_nodes":"47","size_leaf_vector":"1"}},{"base_weights":[-8.257447E-2,5.804133E-1,-3.939672E-1,8.67501E-1,2.4310856E-1,6.7330875E-2,-6.0895866E-1,-3.8979866E-3,1.1046243E-1,-4.7984146E-2,7.6358026E-1,3.9324546E-1,-3.250887E-1,-6.953024E-1,-0E0,3.0198026E-1,-3.2527074E-1,-0E0,8.19424E-1,-1.492877E-2,6.626064E-1,-9.414483E-2,5.779026E-1,1.731495E-2,-7.2566265E-1,-3.6474045E-2,2.742887E-1,-1.09995E-1,5.5430067E-1,-1.1819138E-3,-5.6567647E-2,1.0801534E-1,-1.7205355E-3,5.4988507E-2,-2.3202883E-1,7.945234E-1,-2.785791E-2,-0E0,8.18677E-2,-1.1426325E-2,-7.639136E-1,-1.5227039E-2,4.6347972E-2,-3.257434E-2,2.210544E-2,-7.2975648E-3,8.3218604E-2,2.4459029E-2,-5.703563E-2,-9.424428E-3,1.0792875E-1,2.2829238E-2,-2.6575467E-2,-9.649487E-2,1.332513E-2],"categories":[],"categories_nodes":[],"categories_segments":[],"categories_sizes":[],"default_left":[0,0,0,0,0,0,0,0,0,0,0,0,0,0,0,0,0,0,0,0,0,0,0,0,0,0,0,0,0,0,0,0,0,0,0,0,0,0,0,0,0,0,0,0,0,0,0,0,0,0,0,0,0,0,0],"id":12,"left_children":[1,3,5,7,9,11,13,-1,-1,15,17,19,21,23,25,27,29,-1,31,33,35,-1,37,-1,39,-1,41,43,45,-1,-1,-1,-1,-1,47,49,-1,-1,-1,51,53,-1,-1,-1,-1,-1,-1,-1,-1,-1,-1,-1,-1,-1,-1],"loss_changes":[8.986466E1,1.1038071E1,2.9881107E1,2.1017303E0,1.2451815E1,1.4308916E1,1.0634979E1,0E0,0E0,6.656131E0,1.1231136E0,7.00278E0,2.4342718E1,5.7020187E0,3.601202E0,3.9126647E0,1.3575373E0,0E0,1.6025715E0,4.202267E0,6.303665E0,0E0,1.1306028E0,0E0,4.363838E0,0E0,1.4478774E0,1.3236933E0,2.11841E0,0E0,0E0,0E0,0E0,0E0,3.8459253E0,3.2564526E0,0E0,0E0,0E0,1.1524184E0,3.1441574E0,0E0,0E0,0E0,0E0,0E0,0E0,0E0,0E0,0E0,0E0,0E0,0E0,0E0,0E0],"parents":[2147483647,0,0,1,1,2,2,3,3,4,4,5,5,6,6,9,9,10,10,11,11,12,12,13,13,14,14,15,15,16,16,18,18,19,19,20,20,22,22,24,24,26,26,27,27,28,28,34,34,35,35,39,39,40,40],"right_children":[2,4,6,8,10,12,14,-1,-1,16,18,20,22,24,26,28,30,-1,32,34,36,-1,38,-1,40,-1,42,44,46,-1,-1,-1,-1,-1,48,50,-1,-1,-1,52,54,-1,-1,-1,-1,-1,-1,-1,-1,-1,-1,-1,-1,-1,-1],"split_conditions":[5.37E-1,6.03E2,5.85E2,3.1E1,2.216E3,3.148E3,2.375E3,-3.8979866E-3,1.1046243E-1,4.09E-1,2E0,2.052E3,5.402E3,1.109E3,3E0,1.671E3,1E0,-0E0,5.7E1,1.028E3,1.021E0,-9.414483E-2,6.36E-1,1.731495E-2,5.02E-1,-3.6474045E-2,3.8E1,7.05E-1,3.8E1,-1.1819138E-3,-5.6567647E-2,1.0801534E-1,-1.7205355E-3,5.4988507E-2,5.53E-1,2E0,-2.785791E-2,-0E0,8.18677E-2,4.8E1,8.444E3,-1.5227039E-2,4.6347972E-2,-3.257434E-2,2.210544E-2,-7.2975648E-3,8.3218604E-2,2.4459029E-2,-5.703563E-2,-9.424428E-3,1.0792875E-1,2.2829238E-2,-2.6575467E-2,-9.649487E-2,1.332513E-2],"split_indices":[7,3,3,0,3,5,3,0,0,7,2,5,5,5,2,5,8,0,0,5,4,0,7,0,4,0,0,4,0,0,0,0,0,0,4,2,0,0,0,0,5,0,0,0,0,0,0,0,0,0,0,0,0,0,0],"split_type":[0,0,0,0,0,0,0,0,0,0,0,0,0,0,0,0,0,0,0,0,0,0,0,0,0,0,0,0,0,0,0,0,0,0,0,0,0,0,0,0,0,0,0,0,0,0,0,0,0,0,0,0,0,0,0],"sum_hessian":[4.1524686E2,1.2965262E2,2.8559424E2,6.1233166E1,6.841945E1,9.2349396E1,1.9324484E2,1.0869153E0,6.014625E1,4.9047756E1,1.9371693E1,5.095777E1,4.1391624E1,1.6797623E2,2.5268618E1,2.0707129E1,2.8340628E1,2.1505802E0,1.7221113E1,2.3338863E1,2.7618906E1,2.9261745E1,1.2129876E1,4.2407594E0,1.6373547E2,1.1936956E1,1.333166E1,9.375119E0,1.1332008E1,1.219312E1,1.6147507E1,1.6213825E1,1.0072881E0,3.7055376E0,1.9633326E1,2.5290903E1,2.3280044E0,2.5190852E0,9.610791E0,9.457029E0,1.5427844E2,1.4714599E0,1.1860201E1,7.532719E0,1.8424004E0,2.0770257E0,9.254983E0,6.697641E0,1.2935685E1,1.6443045E0,2.3646599E1,4.3361573E0,5.1208715E0,1.5317233E2,1.106105E0],"tree_param":{"num_deleted":"0","num_feature":"10","num_nodes":"55","size_leaf_vector":"1"}},{"base_weights":[-3.7958097E-2,2.797754E-1,-7.481637E-1,1.0159202E0,6.1731808E-2,-1.17052615E-1,-9.881576E-2,1.3176186E-1,-9.931247E-4,3.0349362E-1,-4.4394863E-1,5.4340214E-1,-4.6057937E-1,-2.2222324E-1,5.963483E-1,-5.0852793E-1,3.37365E-2,-3.7563485E-3,7.878912E-2,-5.7428235E-1,2.5140764E-2,9.49177E-2,-5.076001E-1,9.1910756E-1,-5.0180618E-2,1.9687444E-1,-5.716125E-1,-7.878845E-2,4.1153524E-3,4.9157656E-4,-8.572584E-2,1.4260996E-2,1.3426262E-1,3.902552E-2,-4.275499E-2,4.38403E-2,-1.3528992E-2,-2.5762115E-2,-8.3648235E-2],"categories":[],"categories_nodes":[],"categories_segments":[],"categories_sizes":[],"default_left":[0,0,0,0,0,0,0,0,0,0,0,0,0,0,0,0,0,0,0,0,0,0,0,0,0,0,0,0,0,0,0,0,0,0,0,0,0,0,0],"id":13,"left_children":[1,3,5,7,9,-1,11,-1,-1,13,15,17,19,21,23,25,-1,-1,-1,27,-1,-1,29,31,33,35,37,-1,-1,-1,-1,-1,-1,-1,-1,-1,-1,-1,-1],"loss_changes":[9.402521E1,4.519092E1,1.5114975E1,3.599762E0,2.9703379E1,0E0,1.1942242E1,0E0,0E0,2.6623703E1,5.066245E0,1.4113364E0,3.6715393E0,2.2031975E1,2.3351376E1,4.611719E0,0E0,0E0,0E0,1.5562344E0,0E0,0E0,5.6168537E0,7.988964E0,5.883334E0,1.0858587E0,1.0475693E0,0E0,0E0,0E0,0E0,0E0,0E0,0E0,0E0,0E0,0E0,0E0,0E0],"parents":[2147483647,0,0,1,1,2,2,3,3,4,4,6,6,9,9,10,10,11,11,12,12,13,13,14,14,15,15,19,19,22,22,23,23,24,24,25,25,26,26],"right_children":[2,4,6,8,10,-1,12,-1,-1,14,16,18,20,22,24,26,-1,-1,-1,28,-1,-1,30,32,34,36,38,-1,-1,-1,-1,-1,-1,-1,-1,-1,-1,-1,-1],"split_conditions":[6.5E1,3E0,5.212E3,1.026E0,7.06E-1,-1.17052615E-1,7.5E1,1.3176186E-1,-9.931247E-4,1.806E3,4.642E3,2E0,8.444E3,1.083E3,4.8E1,1.109E3,3.37365E-2,-3.7563485E-3,7.878912E-2,6E0,2.5140764E-2,9.49177E-2,3.79E-1,4E1,8.76E2,1.156E3,7.91E-1,-7.878845E-2,4.1153524E-3,4.9157656E-4,-8.572584E-2,1.4260996E-2,1.3426262E-1,3.902552E-2,-4.275499E-2,4.38403E-2,-1.3528992E-2,-2.5762115E-2,-8.3648235E-2],"split_indices":[6,1,5,7,7,0,6,0,0,5,5,1,5,5,6,5,0,0,0,1,0,0,7,0,3,3,7,0,0,0,0,0,0,0,0,0,0,0,0],"split_type":[0,0,0,0,0,0,0,0,0,0,0,0,0,0,0,0,0,0,0,0,0,0,0,0,0,0,0,0,0,0,0,0,0,0,0,0,0,0,0],"sum_hessian":[3.9726462E2,2.7815652E2,1.1910809E2,5.508703E1,2.2306949E2,8.765618E1,3.1451908E1,5.265908E1,2.4279485E0,1.5403143E2,6.903806E1,9.212416E0,2.2239492E1,5.548532E1,9.854611E1,6.637592E1,2.6621437E0,1.6154974E0,7.596918E0,2.0574333E1,1.6651583E0,8.494468E0,4.6990852E1,6.339766E1,3.5148453E1,3.2802556E0,6.3095665E1,1.8837008E1,1.737327E0,1.439815E1,3.25927E1,1.3918869E1,4.947879E1,1.4842744E1,2.0305708E1,1.9788862E0,1.3013693E0,2.1188066E1,4.19076E1],"tree_param":{"num_deleted":"0","num_feature":"10","num_nodes":"39","size_leaf_vector":"1"}},{"base_weights":[-5.7343896E-2,2.2236198E-1,-7.0068234E-1,5.541209E-1,-1.5285982E-1,-1.1311196E-1,2.2174753E-2,8.592479E-1,1.9022018E-1,-3.9322487E-1,3.8557273E-1,5.734567E-1,-6.936549E-2,5.5980645E-3,9.134822E-1,5.027598E-1,-1.814271E-1,4.9307913E-2,-4.719434E-1,-8.093088E-2,6.3635904E-1,-3.3756364E-3,8.5540995E-2,1.15961865E-1,-0E0,6.2072587E-1,-1.0548828E-2,1.2636702E-1,-3.8778186E-1,-6.952634E-1,-1.392675E-1,3.7940264E-2,-2.8723627E-1,-2.188142E-2,7.848107E-1,-7.0234938E-3,9.771941E-2,-2.4921777E-2,4.0428206E-2,-6.40048E-2,3.1260196E-2,-0E0,-8.9744814E-2,-5.9347726E-2,4.4014077E-3,1.8891428E-2,-5.13554E-2,-0E0,1.0355109E-1],"categories":[],"categories_nodes":[],"categories_segments":[],"categories_sizes":[],"default_left":[0,0,0,0,0,0,0,0,0,0,0,0,0,0,0,0,0,0,0,0,0,0,0,0,0,0,0,0,0,0,0,0,0,0,0,0,0,0,0,0,0,0,0,0,0,0,0,0,0],"id":14,"left_children":[1,3,5,7,9,-1,11,13,15,17,19,21,-1,-1,23,25,27,-1,29,31,33,-1,-1,-1,-1,35,-1,37,39,41,43,-1,45,-1,47,-1,-1,-1,-1,-1,-1,-1,-1,-1,-1,-1,-1,-1,-1],"loss_changes":[7.1855774E1,3.5665154E1,1.904533E1,1.4744614E1,1.930864E1,0E0,1.4797224E1,2.7129974E0,1.0484048E1,8.10493E0,6.197479E0,2.0982347E0,0E0,0E0,1.8149338E0,4.001292E0,3.3564267E0,0E0,5.9081783E0,2.7969093E0,5.4452753E0,0E0,0E0,0E0,0E0,5.3857822E0,0E0,2.2616692E0,3.7733922E0,9.4861794E-1,3.3827534E0,0E0,1.9139311E0,0E0,1.2507572E0,0E0,0E0,0E0,0E0,0E0,0E0,0E0,0E0,0E0,0E0,0E0,0E0,0E0,0E0],"parents":[2147483647,0,0,1,1,2,2,3,3,4,4,6,6,7,7,8,8,9,9,10,10,11,11,14,14,15,15,16,16,18,18,19,19,20,20,25,25,27,27,28,28,29,29,30,30,32,32,34,34],"right_children":[2,4,6,8,10,-1,12,14,16,18,20,22,-1,-1,24,26,28,-1,30,32,34,-1,-1,-1,-1,36,-1,38,40,42,44,-1,46,-1,48,-1,-1,-1,-1,-1,-1,-1,-1,-1,-1,-1,-1,-1,-1],"split_conditions":[6.5E1,1.015E3,5.524E3,4E0,2.19E3,-1.1311196E-1,8.2E1,2E0,1E0,2E0,1.849E3,2E0,-6.936549E-2,5.5980645E-3,1.152E0,5.5E1,6.56E-1,4.9307913E-2,3E0,1.191E3,2E0,-3.3756364E-3,8.5540995E-2,1.15961865E-1,-0E0,1.671E3,-1.0548828E-2,1.777E3,4.495E3,3.93E-1,3.9E1,3.7940264E-2,3E0,-2.188142E-2,3.8E1,-7.0234938E-3,9.771941E-2,-2.4921777E-2,4.0428206E-2,-6.40048E-2,3.1260196E-2,-0E0,-8.9744814E-2,-5.9347726E-2,4.4014077E-3,1.8891428E-2,-5.13554E-2,-0E0,1.0355109E-1],"split_indices":[6,3,5,1,3,0,6,2,8,1,5,1,0,0,4,6,4,0,2,5,2,0,0,0,0,5,0,5,5,4,0,0,1,0,0,0,0,0,0,0,0,0,0,0,0,0,0,0,0],"split_type":[0,0,0,0,0,0,0,0,0,0,0,0,0,0,0,0,0,0,0,0,0,0,0,0,0,0,0,0,0,0,0,0,0,0,0,0,0,0,0,0,0,0,0,0,0,0,0,0,0],"sum_hessian":[3.8028912E2,2.690571E2,1.1123202E2,1.4088005E2,1.2817705E2,8.445481E1,2.6777203E1,6.891247E1,7.196758E1,9.089851E1,3.7278534E1,1.4149665E1,1.2627538E1,5.8404703E0,6.3072E1,3.7784912E1,3.4182667E1,4.2511616E0,8.6647354E1,1.4803117E1,2.2475418E1,2.9868228E0,1.1162842E1,6.1752567E1,1.3194314E0,3.1548239E1,6.2366743E0,1.4497933E1,1.9684734E1,4.4869057E1,4.1778297E1,2.8924835E0,1.1910633E1,2.800252E0,1.9675165E1,7.0877175E0,2.4460522E1,4.7635684E0,9.734365E0,1.843118E1,1.253555E0,2.4404886E0,4.242857E1,9.207359E0,3.257094E1,1.5808711E0,1.03297615E1,1.6563517E0,1.8018814E1],"tree_param":{"num_deleted":"0","num_feature":"10","num_nodes":"49","size_leaf_vector":"1"}},{"base_weights":[-1.2408311E-2,2.738041E-1,-6.222082E-1,5.2050406E-1,-1.520205E-1,-8.899828E-1,1.1549563E-1,2.0086741E-2,7.7694225E-1,4.278365E-1,-3.2189995E-1,-0E0,-1.1357239E-1,5.452765E-1,-4.6714717E-1,9.518927E-2,-2.9988843E-1,7.619308E-3,9.002004E-1,6.2366776E-2,-3.978841E-3,9.8661676E-2,-4.799944E-1,-5.674743E-3,6.780094E-1,-6.983448E-2,1.1078329E-2,2.7042308E-1,-5.196168E-1,-3.7422575E-2,2.2191858E-1,-3.8713423E-4,9.541487E-1,-4.700472E-2,5.260723E-1,3.43763E-2,-5.7683635E-1,-4.757548E-3,9.267341E-2,5.7428226E-2,-1.1078823E-2,-7.1097545E-2,7.164257E-3,4.082618E-2,-1.453813E-2,1.211702E-1,-4.2936206E-3,9.3525454E-2,-1.7632337E-2,-9.957697E-2,-1.875155E-2],"categories":[],"categories_nodes":[],"categories_segments":[],"categories_sizes":[],"default_left":[0,0,0,0,0,0,0,0,0,0,0,0,0,0,0,0,0,0,0,0,0,0,0,0,0,0,0,0,0,0,0,0,0,0,0,0,0,0,0,0,0,0,0,0,0,0,0,0,0,0,0],"id":15,"left_children":[1,3,5,7,9,11,13,15,17,19,21,-1,-1,23,25,-1,27,29,31,-1,-1,33,35,-1,37,-1,-1,39,41,-1,43,-1,45,-1,47,-1,49,-1,-1,-1,-1,-1,-1,-1,-1,-1,-1,-1,-1,-1,-1],"loss_changes":[6.723098E1,2.8376242E1,2.5612347E1,2.115334E1,1.1424629E1,1.9328995E0,1.2755354E1,1.8542772E1,1.0077919E1,1.2659607E0,6.289544E0,0E0,0E0,2.7653275E0,1.8550534E0,0E0,8.19887E0,2.3050888E0,5.0025406E0,0E0,0E0,8.265143E0,6.3878584E0,0E0,1.756403E0,0E0,0E0,1.9877979E0,1.8424683E0,0E0,1.2295277E0,0E0,2.7613068E0,0E0,4.4263673E0,0E0,4.3253365E0,0E0,0E0,0E0,0E0,0E0,0E0,0E0,0E0,0E0,0E0,0E0,0E0,0E0,0E0],"parents":[2147483647,0,0,1,1,2,2,3,3,4,4,5,5,6,6,7,7,8,8,9,9,10,10,13,13,14,14,16,16,17,17,18,18,21,21,22,22,24,24,27,27,28,28,30,30,32,32,34,34,36,36],"right_children":[2,4,6,8,10,12,14,16,18,20,22,-1,-1,24,26,-1,28,30,32,-1,-1,34,36,-1,38,-1,-1,40,42,-1,44,-1,46,-1,48,-1,50,-1,-1,-1,-1,-1,-1,-1,-1,-1,-1,-1,-1,-1,-1],"split_conditions":[6.2E1,6.5E-1,5.244E3,1.777E3,3E0,2.53E3,8.2E1,1.109E3,3.8E1,1.1E0,6.63E-1,-0E0,-1.1357239E-1,2E0,8.05E-1,9.518927E-2,4.12E-1,2.109E3,2E0,6.2366776E-2,-3.978841E-3,1.968E3,1.109E3,-5.674743E-3,6.4E-1,-6.983448E-2,1.1078329E-2,3.79E-1,4E0,-3.7422575E-2,8.96E-1,-3.8713423E-4,6E1,-4.700472E-2,2.872E3,3.43763E-2,2.399E3,-4.757548E-3,9.267341E-2,5.7428226E-2,-1.1078823E-2,-7.1097545E-2,7.164257E-3,4.082618E-2,-1.453813E-2,1.211702E-1,-4.2936206E-3,9.3525454E-2,-1.7632337E-2,-9.957697E-2,-1.875155E-2],"split_indices":[6,7,5,5,1,5,6,5,0,7,4,0,0,1,7,0,4,5,2,0,0,5,5,0,7,0,0,7,2,0,4,0,0,0,5,0,5,0,0,0,0,0,0,0,0,0,0,0,0,0,0],"split_type":[0,0,0,0,0,0,0,0,0,0,0,0,0,0,0,0,0,0,0,0,0,0,0,0,0,0,0,0,0,0,0,0,0,0,0,0,0,0,0,0,0,0,0,0,0,0,0,0,0,0,0],"sum_hessian":[3.6535693E2,2.5186043E2,1.13496506E2,1.5866481E2,9.319562E1,8.2177345E1,3.1319153E1,5.7784E1,1.0088081E2,1.7292894E1,7.5902725E1,2.8949187E0,7.928243E1,1.8749184E1,1.256997E1,1.3607756E1,4.4176243E1,1.5766289E1,8.5114525E1,1.477525E1,2.5176432E0,2.108578E1,5.4816948E1,4.0844345E0,1.4664749E1,1.1185631E1,1.3843397E0,1.1193961E1,3.298228E1,4.1207585E0,1.164553E1,4.920412E0,8.0194115E1,1.00576105E1,1.102817E1,3.7351894E0,5.1081757E1,1.2099426E0,1.3454806E1,6.151259E0,5.0427017E0,3.0811275E1,2.1710076E0,9.891632E0,1.7538977E0,7.881306E1,1.3810599E0,7.704934E0,3.3232358E0,2.71623E1,2.3919456E1],"tree_param":{"num_deleted":"0","num_feature":"10","num_nodes":"51","size_leaf_vector":"1"}},{"base_weights":[-1.8598191E-2,2.194396E-1,-6.225865E-1,4.7236893E-1,-2.1132809E-1,-1.0860723E-1,1.2087547E-2,1.250041E-1,7.849559E-1,3.9549944E-1,-3.7261146E-1,-4.4341862E-1,5.288611E-1,9.877782E-2,-8.948916E-2,9.2604923E-1,1.7566109E-1,6.563953E-2,-0E0,4.7408942E-2,-4.4494727E-1,1.4943265E-2,-6.579471E-2,6.3535315E-1,-1.3319417E-2,2.0591827E-1,-5.7954824E-1,-9.017147E-3,9.746551E-1,-2.6206905E-1,9.412428E-2,-2.6235506E-2,2.4031872E-2,-9.44388E-2,-1.852064E-1,-4.3483344E-3,8.9058936E-2,-3.5384227E-2,8.1388675E-2,-8.1289925E-2,1.6163882E-2,1.2547815E-1,-0E0,9.810664E-3,-5.2614626E-2,3.0910553E-2,-4.7593027E-2],"categories":[],"categories_nodes":[],"categories_segments":[],"categories_sizes":[],"default_left":[0,0,0,0,0,0,0,0,0,0,0,0,0,0,0,0,0,0,0,0,0,0,0,0,0,0,0,0,0,0,0,0,0,0,0,0,0,0,0,0,0,0,0,0,0,0,0],"id":16,"left_children":[1,3,5,7,9,-1,11,13,15,17,19,21,23,-1,25,27,29,-1,31,-1,33,-1,-1,35,-1,37,39,-1,41,43,-1,-1,-1,-1,45,-1,-1,-1,-1,-1,-1,-1,-1,-1,-1,-1,-1],"loss_changes":[5.377441E1,3.0224514E1,1.7457127E1,1.740665E1,1.1707509E1,0E0,1.1556436E1,1.4445181E1,5.600952E0,1.4072776E0,6.5045633E0,2.042409E0,2.4302464E0,0E0,1.2763374E1,4.365696E0,9.5237255E0,0E0,1.0650635E0,0E0,5.3394775E0,0E0,0E0,1.7134552E0,0E0,1.4373885E1,2.7997227E0,0E0,2.6345863E0,1.7507181E0,0E0,0E0,0E0,0E0,6.2046914E0,0E0,0E0,0E0,0E0,0E0,0E0,0E0,0E0,0E0,0E0,0E0,0E0],"parents":[2147483647,0,0,1,1,2,2,3,3,4,4,6,6,7,7,8,8,9,9,10,10,11,11,12,12,14,14,15,15,16,16,18,18,20,20,23,23,25,25,26,26,28,28,29,29,34,34],"right_children":[2,4,6,8,10,-1,12,14,16,18,20,22,24,-1,26,28,30,-1,32,-1,34,-1,-1,36,-1,38,40,-1,42,44,-1,-1,-1,-1,46,-1,-1,-1,-1,-1,-1,-1,-1,-1,-1,-1,-1],"split_conditions":[6.4E1,6.58E-1,5.212E3,2.078E3,3E0,-1.0860723E-1,7.92E-1,1.109E3,5.3E1,9.29E2,9.61E2,5.77E-1,9.1E1,9.877782E-2,6.44E-1,3E1,4.486E3,6.563953E-2,1.592E3,4.7408942E-2,1.931E3,1.4943265E-2,-6.579471E-2,2E0,-1.3319417E-2,1.685E3,4E0,-9.017147E-3,1.059E0,4E0,9.412428E-2,-2.6235506E-2,2.4031872E-2,-9.44388E-2,6.56E-1,-4.3483344E-3,8.9058936E-2,-3.5384227E-2,8.1388675E-2,-8.1289925E-2,1.6163882E-2,1.2547815E-1,-0E0,9.810664E-3,-5.2614626E-2,3.0910553E-2,-4.7593027E-2],"split_indices":[6,7,5,5,1,0,4,5,6,3,5,4,6,0,4,0,5,0,5,0,5,0,0,2,0,5,2,0,4,1,0,0,0,0,4,0,0,0,0,0,0,0,0,0,0,0,0],"split_type":[0,0,0,0,0,0,0,0,0,0,0,0,0,0,0,0,0,0,0,0,0,0,0,0,0,0,0,0,0,0,0,0,0,0,0,0,0,0,0,0,0,0,0,0,0,0,0],"sum_hessian":[3.5412457E2,2.5798718E2,9.61374E1,1.6250374E2,9.548344E1,6.647825E1,2.9659153E1,8.394577E1,7.855797E1,1.6615454E1,7.886798E1,1.610985E1,1.3549303E1,1.4381372E1,6.95644E1,5.920883E1,1.9349138E1,1.0009833E1,6.6056204E0,2.8200963E0,7.604789E1,1.0969092E0,1.501294E1,1.2121534E1,1.4277686E0,4.642433E1,2.314007E1,2.168698E0,5.7040134E1,1.3736555E1,5.6125846E0,2.7975445E0,3.8080757E0,2.5185423E1,5.0862465E1,1.4595127E0,1.0662022E1,2.350967E1,2.2914661E1,2.2034752E1,1.1053174E0,5.473702E1,2.303114E0,5.2877336E0,8.448821E0,1.4600739E1,3.6261726E1],"tree_param":{"num_deleted":"0","num_feature":"10","num_nodes":"47","size_leaf_vector":"1"}},{"base_weights":[-5.4606604E-3,2.1099535E-1,-5.61703E-1,-4.158837E-1,3.4406215E-1,-1.08136505E-1,1.1216913E-1,4.4387463E-2,-6.051481E-1,4.5631275E-1,-3.3433655E-1,5.407104E-1,-4.0970114E-1,-8.097871E-2,9.495259E-3,6.733213E-1,1.6964687E-1,2.850475E-2,-4.4107595E-1,2.3764493E-2,7.925768E-2,-6.632766E-2,8.483487E-3,-0E0,7.717155E-1,-3.933583E-2,2.7416417E-1,-6.2139973E-2,1.2625237E-2,-3.342782E-2,4.1668233E-2,4.454421E-2,-3.9684214E-2,1.02876626E-1,-2.1597069E-2,-2.0380323E-3,4.9591485E-2],"categories":[],"categories_nodes":[],"categories_segments":[],"categories_sizes":[],"default_left":[0,0,0,0,0,0,0,0,0,0,0,0,0,0,0,0,0,0,0,0,0,0,0,0,0,0,0,0,0,0,0,0,0,0,0,0,0],"id":17,"left_children":[1,3,5,7,9,-1,11,-1,13,15,17,19,21,-1,-1,23,25,-1,27,29,-1,-1,-1,31,33,-1,35,-1,-1,-1,-1,-1,-1,-1,-1,-1,-1],"loss_changes":[4.289231E1,2.2657984E1,2.2157444E1,9.306712E0,1.8001646E1,0E0,1.1075852E1,0E0,2.1123343E0,1.04172325E1,3.2178936E0,9.5186186E-1,1.9087646E0,0E0,0E0,6.886257E0,5.6931334E0,0E0,1.7552109E0,2.2651696E0,0E0,0E0,0E0,3.7603927E0,6.6568985E0,0E0,3.30125E0,0E0,0E0,0E0,0E0,0E0,0E0,0E0,0E0,0E0,0E0],"parents":[2147483647,0,0,1,1,2,2,3,3,4,4,6,6,8,8,9,9,10,10,11,11,12,12,15,15,16,16,18,18,19,19,23,23,24,24,26,26],"right_children":[2,4,6,8,10,-1,12,-1,14,16,18,20,22,-1,-1,24,26,-1,28,30,-1,-1,-1,32,34,-1,36,-1,-1,-1,-1,-1,-1,-1,-1,-1,-1],"split_conditions":[6.4E1,2E0,5.212E3,1.109E3,8.78E-1,-1.08136505E-1,8.1E1,4.4387463E-2,4.486E3,1E0,9.61E2,5.977E3,7.75E-1,-8.097871E-2,9.495259E-3,1.484E3,3.8E1,2.850475E-2,5.102E3,9.63E-1,7.925768E-2,-6.632766E-2,8.483487E-3,1.109E3,1.059E0,-3.933583E-2,1.625E3,-6.2139973E-2,1.2625237E-2,-3.342782E-2,4.1668233E-2,4.454421E-2,-3.9684214E-2,1.02876626E-1,-2.1597069E-2,-2.0380323E-3,4.9591485E-2],"split_indices":[6,2,5,5,7,0,6,0,5,8,5,5,7,0,0,5,0,0,5,4,0,0,0,5,4,0,5,0,0,0,0,0,0,0,0,0,0],"split_type":[0,0,0,0,0,0,0,0,0,0,0,0,0,0,0,0,0,0,0,0,0,0,0,0,0,0,0,0,0,0,0,0,0,0,0,0,0],"sum_hessian":[3.359715E2,2.4569283E2,9.027868E1,3.893213E1,2.067607E2,6.021709E1,3.0061588E1,5.5676327E0,3.3364494E1,1.8059372E2,2.6166977E1,1.6707588E1,1.3354001E1,3.2049973E1,1.3145254E0,9.462242E1,8.5971306E1,1.8309509E0,2.4336025E1,5.208526E0,1.1499062E1,1.028435E1,3.0696511E0,1.3335841E1,8.1286575E1,1.1081271E1,7.489003E1,2.3189913E1,1.1461133E0,2.7517803E0,2.456746E0,5.7693357E0,7.5665054E0,7.805721E1,3.2293649E0,2.4287384E1,5.060265E1],"tree_param":{"num_deleted":"0","num_feature":"10","num_nodes":"37","size_leaf_vector":"1"}},{"base_weights":[-3.8287777E-2,3.7890434E-1,-2.9963717E-1,4.7967604E-1,-2.0494972E-1,2.0144836E-3,-6.3106966E-1,7.3712564E-1,1.5869871E-1,-5.9825264E-2,2.0570889E-1,-2.7701163E-1,4.5116982E-1,-7.5881225E-1,1.9542812E-1,7.6277846E-1,-3.2231756E-3,-1.9004846E-1,3.3934247E-1,-1.08628115E-2,4.4785645E-2,3.3553907E-1,-4.5510828E-1,6.762745E-1,-2.0640065E-1,-7.9003817E-1,1.528816E-2,5.0995972E-2,-2.8377468E-2,9.735355E-2,-0E0,4.391456E-2,-3.9442942E-1,5.704357E-1,-0E0,-5.312733E-2,5.0243765E-1,2.74701E-1,-5.808084E-1,7.763311E-1,-1.9881364E-2,-4.6103943E-2,1.3203587E-2,7.9289905E-4,-9.987975E-2,8.547986E-3,-6.0833227E-2,-6.9014626E-3,7.812573E-2,-2.5153663E-2,4.5780696E-2,2.0836102E-2,-3.212316E-2,8.3686836E-2,-1.498717E-2,5.3265467E-2,-8.485918E-3,2.2254972E-2,-7.887288E-2,-1.0805945E-2,1.07885726E-1],"categories":[],"categories_nodes":[],"categories_segments":[],"categories_sizes":[],"default_left":[0,0,0,0,0,0,0,0,0,0,0,0,0,0,0,0,0,0,0,0,0,0,0,0,0,0,0,0,0,0,0,0,0,0,0,0,0,0,0,0,0,0,0,0,0,0,0,0,0,0,0,0,0,0,0,0,0,0,0,0,0],"id":18,"left_children":[1,3,5,7,9,11,13,15,17,-1,19,21,23,25,27,29,-1,31,33,-1,-1,35,37,39,41,43,-1,-1,-1,-1,-1,-1,45,47,49,51,53,55,57,59,-1,-1,-1,-1,-1,-1,-1,-1,-1,-1,-1,-1,-1,-1,-1,-1,-1,-1,-1,-1,-1],"loss_changes":[3.7808346E1,8.907888E0,2.1554726E1,8.227564E0,4.0146933E0,1.6390625E1,1.24308815E1,1.6762123E0,4.784914E0,0E0,1.1695641E0,1.0235458E1,8.986712E0,3.6937103E0,2.9013503E0,1.0013733E0,0E0,4.4512014E0,3.8437161E0,0E0,0E0,1.9232488E0,7.753744E0,4.8021603E0,1.5099809E0,1.4722023E0,0E0,0E0,0E0,0E0,0E0,0E0,1.6113868E0,1.6213522E0,2.8017337E0,1.1392375E0,2.9069233E0,1.264746E0,3.8181686E0,4.112171E0,0E0,0E0,0E0,0E0,0E0,0E0,0E0,0E0,0E0,0E0,0E0,0E0,0E0,0E0,0E0,0E0,0E0,0E0,0E0,0E0,0E0],"parents":[2147483647,0,0,1,1,2,2,3,3,4,4,5,5,6,6,7,7,8,8,10,10,11,11,12,12,13,13,14,14,15,15,17,17,18,18,21,21,22,22,23,23,24,24,25,25,32,32,33,33,34,34,35,35,36,36,37,37,38,38,39,39],"right_children":[2,4,6,8,10,12,14,16,18,-1,20,22,24,26,28,30,-1,32,34,-1,-1,36,38,40,42,44,-1,-1,-1,-1,-1,-1,46,48,50,52,54,56,58,60,-1,-1,-1,-1,-1,-1,-1,-1,-1,-1,-1,-1,-1,-1,-1,-1,-1,-1,-1,-1,-1],"split_conditions":[6.03E2,7.2E1,5.3E1,4E0,5.212E3,2.128E3,2.375E3,5.41E2,1.931E3,-5.9825264E-2,7.44E-1,1.191E3,8.98E-1,8.444E3,7.4E1,1.042E0,-3.2231756E-3,1.028E3,4.9E1,-1.08628115E-2,4.4785645E-2,6.8E-1,3.93E-1,3.095E3,2.682E3,3.93E-1,1.528816E-2,5.0995972E-2,-2.8377468E-2,9.735355E-2,-0E0,4.391456E-2,3.64E-1,2.8E1,4.666E3,9.61E2,9.02E-1,5.1E1,2E0,3.5E1,-1.9881364E-2,-4.6103943E-2,1.3203587E-2,7.9289905E-4,-9.987975E-2,8.547986E-3,-6.0833227E-2,-6.9014626E-3,7.812573E-2,-2.5153663E-2,4.5780696E-2,2.0836102E-2,-3.212316E-2,8.3686836E-2,-1.498717E-2,5.3265467E-2,-8.485918E-3,2.2254972E-2,-7.887288E-2,-1.0805945E-2,1.07885726E-1],"split_indices":[3,6,6,1,5,5,3,3,5,0,4,5,4,5,6,7,0,5,6,0,0,4,4,5,5,4,0,0,0,0,0,0,7,0,5,5,7,0,1,0,0,0,0,0,0,0,0,0,0,0,0,0,0,0,0,0,0,0,0,0,0],"split_type":[0,0,0,0,0,0,0,0,0,0,0,0,0,0,0,0,0,0,0,0,0,0,0,0,0,0,0,0,0,0,0,0,0,0,0,0,0,0,0,0,0,0,0,0,0,0,0,0,0,0,0,0,0,0,0,0,0,0,0,0,0],"sum_hessian":[3.27297E2,1.2383821E2,2.0345877E2,1.0762612E2,1.6212086E1,1.109563E2,9.250247E1,5.212282E1,5.5503304E1,9.202166E0,7.0099206E0,7.021316E1,4.0743145E1,8.1195946E1,1.1306522E1,5.0904842E1,1.217978E0,1.8063063E1,3.7440243E1,3.0627275E0,3.9471934E0,1.3418872E1,5.6794285E1,3.0570293E1,1.0172851E1,7.9803474E1,1.3924707E0,8.270687E0,3.0358357E0,4.908413E1,1.8207128E0,2.49676E0,1.5566301E1,1.881533E1,1.862491E1,5.3396974E0,8.079174E0,6.224979E0,5.0569305E1,2.8325912E1,2.2443817E0,6.23966E0,3.9331908E0,1.202536E0,7.860094E1,2.486702E0,1.3079599E1,1.1574903E0,1.765784E1,1.5289741E1,3.3351703E0,2.5603447E0,2.7793527E0,6.165341E0,1.9138336E0,3.3564327E0,2.868546E0,1.514758E0,4.905455E1,2.4628713E0,2.586304E1],"tree_param":{"num_deleted":"0","num_feature":"10","num_nodes":"61","size_leaf_vector":"1"}},{"base_weights":[-6.810053E-3,1.9350244E-1,-6.1054343E-1,-3.847128E-1,3.1106916E-1,-8.226142E-1,2.2756713E-2,2.6326029E-2,-4.9395043E-1,4.3846223E-1,-1.9777653E-1,-1.0572546E-1,-2.4348807E-3,-3.8689476E-1,5.06266E-1,-5.4622954E-1,1.0013385E-2,1.2438934E-1,6.790967E-1,9.73375E-2,-4.434176E-1,2.1684036E-2,-6.743586E-2,-0E0,7.879505E-2,1.3504962E-3,-7.224026E-2,9.2883185E-2,-4.9955886E-2,-2.2235239E-2,7.169339E-1,2.2567697E-1,-1.6389845E-2,-6.48696E-2,1.5993712E-2,3.5199057E-2,-6.385473E-2,9.369515E-2,-6.2877685E-3,4.2253178E-2,-1.0806167E-2],"categories":[],"categories_nodes":[],"categories_segments":[],"categories_sizes":[],"default_left":[0,0,0,0,0,0,0,0,0,0,0,0,0,0,0,0,0,0,0,0,0,0,0,0,0,0,0,0,0,0,0,0,0,0,0,0,0,0,0,0,0],"id":19,"left_children":[1,3,5,7,9,11,13,-1,15,17,19,-1,-1,21,23,25,-1,27,29,31,33,-1,-1,-1,-1,-1,-1,-1,35,-1,37,39,-1,-1,-1,-1,-1,-1,-1,-1,-1],"loss_changes":[4.1013874E1,1.836005E1,1.1842421E1,4.1598496E0,1.4963837E1,1.0749245E0,7.918183E0,0E0,1.8874674E0,1.2242546E1,4.1296678E0,0E0,0E0,2.948112E0,1.1257687E0,1.1128283E0,0E0,1.0340825E1,4.6025352E0,1.1981647E0,2.1456604E0,0E0,0E0,0E0,0E0,0E0,0E0,0E0,1.3669578E1,0E0,3.491356E0,1.2347742E0,0E0,0E0,0E0,0E0,0E0,0E0,0E0,0E0,0E0],"parents":[2147483647,0,0,1,1,2,2,3,3,4,4,5,5,6,6,8,8,9,9,10,10,13,13,14,14,15,15,17,17,18,18,19,19,20,20,28,28,30,30,31,31],"right_children":[2,4,6,8,10,12,14,-1,16,18,20,-1,-1,22,24,26,-1,28,30,32,34,-1,-1,-1,-1,-1,-1,-1,36,-1,38,40,-1,-1,-1,-1,-1,-1,-1,-1,-1],"split_conditions":[6.5E1,2E0,5.977E3,1.083E3,7.95E-1,1.021E0,7.39E-1,2.6326029E-2,4.495E3,2.052E3,9.24E2,-1.0572546E-1,-2.4348807E-3,7.2E1,7.82E-1,3.1E1,1.0013385E-2,1.028E3,3E1,9.12E-1,4.642E3,2.1684036E-2,-6.743586E-2,-0E0,7.879505E-2,1.3504962E-3,-7.224026E-2,9.2883185E-2,6.44E-1,-2.2235239E-2,1.07E0,3.148E3,-1.6389845E-2,-6.48696E-2,1.5993712E-2,3.5199057E-2,-6.385473E-2,9.369515E-2,-6.2877685E-3,4.2253178E-2,-1.0806167E-2],"split_indices":[6,2,5,5,7,4,7,0,5,5,3,0,0,6,4,0,0,5,0,4,5,0,0,0,0,0,0,0,4,0,4,5,0,0,0,0,0,0,0,0,0],"split_type":[0,0,0,0,0,0,0,0,0,0,0,0,0,0,0,0,0,0,0,0,0,0,0,0,0,0,0,0,0,0,0,0,0,0,0,0,0,0,0,0,0],"sum_hessian":[3.1874E2,2.4380089E2,7.4939095E1,3.6947098E1,2.0685379E2,5.441592E1,2.0523174E1,3.7739565E0,3.317314E1,1.6709152E2,3.976226E1,5.1405525E1,3.0103958E0,1.173835E1,8.784824E0,3.1441648E1,1.7314926E0,7.9519424E1,8.7572105E1,2.0023966E1,1.9738295E1,1.8081173E0,9.930232E0,3.963842E0,4.8209825E0,1.7281593E0,2.971349E1,1.0856062E1,6.866336E1,1.7537936E0,8.581831E1,1.3990949E1,6.0330167E0,1.8618938E1,1.1193572E0,4.1697216E1,2.6966143E1,8.2273964E1,3.5443468E0,1.0463506E1,3.5274432E0],"tree_param":{"num_deleted":"0","num_feature":"10","num_nodes":"41","size_leaf_vector":"1"}},{"base_weights":[-2.2191038E-2,1.3771841E-1,-6.477444E-1,7.495354E-1,-2.9121377E-2,-9.253229E-2,5.0649453E-2,1.0332212E-1,-9.937533E-3,2.2964391E-1,-2.9407454E-1,3.9375123E-2,-1.9286746E-2,5.103153E-1,-5.3760078E-2,-5.0867605E-1,-2.39232E-3,5.786237E-1,-8.953288E-4,-2.5346863E-1,1.6260244E-1,-0E0,-6.3940287E-1,2.6434344E-1,-1.7184363E-1,6.9859885E-3,8.098963E-2,1.23017905E-2,-5.411299E-2,3.24494E-2,-1.7928598E-2,6.575485E-3,-8.343773E-2,5.6705933E-2,-4.7531202E-3,-3.458426E-2,2.587528E-2],"categories":[],"categories_nodes":[],"categories_segments":[],"categories_sizes":[],"default_left":[0,0,0,0,0,0,0,0,0,0,0,0,0,0,0,0,0,0,0,0,0,0,0,0,0,0,0,0,0,0,0,0,0,0,0,0,0],"id":20,"left_children":[1,3,5,7,9,-1,11,-1,-1,13,15,-1,-1,17,19,21,23,25,-1,27,29,-1,31,33,35,-1,-1,-1,-1,-1,-1,-1,-1,-1,-1,-1,-1],"loss_changes":[3.2191177E1,2.655083E1,5.147331E0,4.8022594E0,1.5041212E1,0E0,1.4585425E0,0E0,0E0,9.241787E0,6.587325E0,0E0,0E0,2.2758846E0,3.1619928E0,4.21692E0,2.9551518E0,1.3826237E0,0E0,2.9682877E0,1.4861057E0,0E0,1.7306862E0,1.780276E0,2.2708163E0,0E0,0E0,0E0,0E0,0E0,0E0,0E0,0E0,0E0,0E0,0E0,0E0],"parents":[2147483647,0,0,1,1,2,2,3,3,4,4,6,6,9,9,10,10,13,13,14,14,15,15,16,16,17,17,19,19,20,20,22,22,23,23,24,24],"right_children":[2,4,6,8,10,-1,12,-1,-1,14,16,-1,-1,18,20,22,24,26,-1,28,30,-1,32,34,36,-1,-1,-1,-1,-1,-1,-1,-1,-1,-1,-1,-1],"split_conditions":[7E1,3E0,9.34E-1,9.25E-1,1E0,-9.253229E-2,3E0,1.0332212E-1,-9.937533E-3,5.86E-1,3E0,3.9375123E-2,-1.9286746E-2,5.1E1,3E0,4.55E-1,4E0,4E1,-8.953288E-4,5.85E2,9.09E-1,-0E0,2.3E1,5.11E-1,2.497E3,6.9859885E-3,8.098963E-2,1.23017905E-2,-5.411299E-2,3.24494E-2,-1.7928598E-2,6.575485E-3,-8.343773E-2,5.6705933E-2,-4.7531202E-3,-3.458426E-2,2.587528E-2],"split_indices":[6,1,4,7,8,0,1,0,0,7,2,0,0,6,2,7,1,0,0,3,7,0,6,7,3,0,0,0,0,0,0,0,0,0,0,0,0],"split_type":[0,0,0,0,0,0,0,0,0,0,0,0,0,0,0,0,0,0,0,0,0,0,0,0,0,0,0,0,0,0,0,0,0,0,0,0,0],"sum_hessian":[3.016177E2,2.4574223E2,5.5875484E1,4.5898354E1,1.9984387E2,4.8835083E1,7.0404015E0,4.2043587E1,3.8547668E0,1.0104218E2,9.880169E1,1.580191E0,5.4602103E0,4.7537903E1,5.3504276E1,5.204161E1,4.676008E1,4.1623688E1,5.9142165E0,2.7857162E1,2.5647116E1,1.2339295E1,3.9702316E1,1.5207144E1,3.1552937E1,7.9623156E0,3.3661373E1,1.0336576E1,1.7520586E1,2.1386608E1,4.260506E0,1.075267E0,3.862705E1,7.0171537E0,8.18999E0,2.7398012E1,4.154923E0],"tree_param":{"num_deleted":"0","num_feature":"10","num_nodes":"37","size_leaf_vector":"1"}},{"base_weights":[-2.8901432E-2,4.4539854E-1,-2.1066625E-1,-1.9489057E-1,5.488758E-1,-4.5706373E-1,5.6295883E-2,1.3524243E-2,-3.8730707E-2,6.473874E-1,-0E0,4.0839434E-2,-5.191628E-1,1.8778287E-1,-3.5070935E-1,-0E0,6.989812E-1,7.3663116E-2,-6.018162E-1,-1.7786647E-1,3.7922567E-1,-5.444337E-1,2.808486E-2,7.5377613E-1,-0E0,3.790968E-2,-3.2247365E-2,-6.4591065E-2,-7.927855E-2,4.6620768E-2,-3.4057716E-1,5.7886976E-1,1.09786615E-2,-7.453696E-2,2.5945518E-3,9.724496E-2,-2.812487E-3,1.5694007E-2,-3.2429315E-2,5.4438054E-3,-6.1353575E-2,9.2038915E-2,-1.886871E-2,-6.5418564E-2,8.1770875E-2],"categories":[],"categories_nodes":[],"categories_segments":[],"categories_sizes":[],"default_left":[0,0,0,0,0,0,0,0,0,0,0,0,0,0,0,0,0,0,0,0,0,0,0,0,0,0,0,0,0,0,0,0,0,0,0,0,0,0,0,0,0,0,0,0,0],"id":21,"left_children":[1,3,5,7,9,11,13,-1,-1,15,-1,-1,17,19,21,-1,23,25,27,29,31,33,-1,35,-1,-1,-1,37,-1,-1,39,41,43,-1,-1,-1,-1,-1,-1,-1,-1,-1,-1,-1,-1],"loss_changes":[2.7001238E1,6.9088974E0,1.5309342E1,1.0736258E0,4.4232826E0,7.569683E0,6.820365E0,0E0,0E0,2.1522846E0,0E0,0E0,6.26569E0,7.3900146E0,4.797135E0,0E0,2.4720402E0,2.5029075E0,1.4215164E0,4.70651E0,4.587597E0,1.1962147E0,0E0,1.8209267E0,0E0,0E0,0E0,1.0543665E0,0E0,0E0,2.482964E0,6.351453E0,1.522731E1,0E0,0E0,0E0,0E0,0E0,0E0,0E0,0E0,0E0,0E0,0E0,0E0],"parents":[2147483647,0,0,1,1,2,2,3,3,4,4,5,5,6,6,9,9,12,12,13,13,14,14,16,16,17,17,18,18,19,19,20,20,21,21,23,23,27,27,30,30,31,31,32,32],"right_children":[2,4,6,8,10,12,14,-1,-1,16,-1,-1,18,20,22,-1,24,26,28,30,32,34,-1,36,-1,-1,-1,38,-1,-1,40,42,44,-1,-1,-1,-1,-1,-1,-1,-1,-1,-1,-1,-1],"split_conditions":[4.91E-1,2E0,3E0,3E0,6E0,1.028E3,7E1,1.3524243E-2,-3.8730707E-2,3.7E1,-0E0,4.0839434E-2,3.6E1,1.968E3,7.745E3,-0E0,5.8E1,8.38E-1,5.37E-1,9.61E2,2.907E3,1.021E0,2.808486E-2,6.1E1,-0E0,3.790968E-2,-3.2247365E-2,5.1E1,-7.927855E-2,4.6620768E-2,5.67E-1,9.03E-1,4.503E3,-7.453696E-2,2.5945518E-3,9.724496E-2,-2.812487E-3,1.5694007E-2,-3.2429315E-2,5.4438054E-3,-6.1353575E-2,9.2038915E-2,-1.886871E-2,-6.5418564E-2,8.1770875E-2],"split_indices":[7,2,2,1,1,5,6,0,0,0,0,0,0,5,5,0,0,4,7,5,5,4,0,6,0,0,0,6,0,0,4,4,5,0,0,0,0,0,0,0,0,0,0,0,0],"split_type":[0,0,0,0,0,0,0,0,0,0,0,0,0,0,0,0,0,0,0,0,0,0,0,0,0,0,0,0,0,0,0,0,0,0,0,0,0,0,0,0,0,0,0,0,0],"sum_hessian":[2.9402435E2,7.7006874E1,2.170175E2,9.02393E0,6.798294E1,1.1000191E2,1.07015594E2,1.8263913E0,7.1975384E0,5.6702976E1,1.1279964E1,4.563646E0,1.05438255E2,8.551345E1,2.1502142E1,5.031228E0,5.167175E1,1.24782E1,9.296006E1,2.89525E1,5.656095E1,1.6995352E1,4.5067906E0,4.742867E1,4.24308E0,8.496385E0,3.9818158E0,8.47954E0,8.448052E1,3.1736448E0,2.5778854E1,3.2434246E1,2.4126703E1,1.5481098E1,1.5142533E0,4.59853E1,1.4433721E0,5.0965543E0,3.3829856E0,8.676565E0,1.710229E1,2.6793999E1,5.640248E0,1.3851113E1,1.0275589E1],"tree_param":{"num_deleted":"0","num_feature":"10","num_nodes":"45","size_leaf_vector":"1"}},{"base_weights":[-2.4078563E-2,1.4572552E-1,-4.6145672E-1,6.31916E-1,8.4481295E-3,-9.866591E-2,1.4643385E-1,9.738265E-2,-1.6096817E-2,-3.0274165E-1,2.2107227E-1,4.8564044E-1,-2.9272908E-1,6.278415E-2,-4.9531427E-1,5.579889E-1,-1.751772E-1,-0E0,7.450903E-2,-5.4639813E-2,2.264139E-2,1.767453E-1,-6.244306E-1,7.3585236E-1,-1.9664377E-1,-3.0555618E-1,5.509766E-2,-1.1237971E-2,4.505841E-2,-1.1766967E-2,-8.6393654E-2,-1.7588466E-2,9.7598374E-2,1.8225769E-2,-4.6892203E-2,-7.946003E-3,-7.73692E-2],"categories":[],"categories_nodes":[],"categories_segments":[],"categories_sizes":[],"default_left":[0,0,0,0,0,0,0,0,0,0,0,0,0,0,0,0,0,0,0,0,0,0,0,0,0,0,0,0,0,0,0,0,0,0,0,0,0],"id":22,"left_children":[1,3,5,7,9,-1,11,-1,-1,13,15,17,19,-1,21,23,25,-1,-1,-1,-1,27,29,31,33,35,-1,-1,-1,-1,-1,-1,-1,-1,-1,-1,-1],"loss_changes":[2.2447514E1,1.4193216E1,1.8568853E1,6.7420635E0,1.2501594E1,0E0,7.076066E0,0E0,0E0,1.4309217E1,1.6175083E1,1.4660921E0,2.4252563E0,0E0,7.0372486E0,1.0176424E1,6.0106363E0,0E0,0E0,0E0,0E0,1.3118527E0,1.3207226E0,3.7714138E0,1.8364604E0,3.5718632E0,0E0,0E0,0E0,0E0,0E0,0E0,0E0,0E0,0E0,0E0,0E0],"parents":[2147483647,0,0,1,1,2,2,3,3,4,4,6,6,9,9,10,10,11,11,12,12,14,14,15,15,16,16,21,21,22,22,23,23,24,24,25,25],"right_children":[2,4,6,8,10,-1,12,-1,-1,14,16,18,20,-1,22,24,26,-1,-1,-1,-1,28,30,32,34,36,-1,-1,-1,-1,-1,-1,-1,-1,-1,-1,-1],"split_conditions":[6.2E1,3E0,5.212E3,8.18E-1,1.849E3,-9.866591E-2,7.9E1,9.738265E-2,-1.6096817E-2,1.028E3,4.8E1,7.47E-1,9.63E-1,6.278415E-2,4.12E-1,8.93E-1,4.495E3,-0E0,7.450903E-2,-5.4639813E-2,2.264139E-2,1.576E3,3.79E-1,2.8E1,1E0,3.148E3,5.509766E-2,-1.1237971E-2,4.505841E-2,-1.1766967E-2,-8.6393654E-2,-1.7588466E-2,9.7598374E-2,1.8225769E-2,-4.6892203E-2,-7.946003E-3,-7.73692E-2],"split_indices":[6,1,5,7,5,0,6,0,0,5,6,4,4,0,4,4,5,0,0,0,0,5,7,0,9,5,0,0,0,0,0,0,0,0,0,0,0],"split_type":[0,0,0,0,0,0,0,0,0,0,0,0,0,0,0,0,0,0,0,0,0,0,0,0,0,0,0,0,0,0,0,0,0,0,0,0,0],"sum_hessian":[2.8224023E2,2.0733879E2,7.490145E1,3.7384098E1,1.6995468E2,4.6777832E1,2.812362E1,3.1261082E1,6.1230173E0,6.6611885E1,1.03342804E2,1.5769486E1,1.2354134E1,9.401912E0,5.7209976E1,5.4228935E1,4.911387E1,4.777871E0,1.0991615E1,1.0553961E1,1.8001723E0,8.1795845E0,4.903039E1,4.448005E1,9.748883E0,4.512317E1,3.9906993E0,4.5884104E0,3.5911736E0,9.219994E0,3.98104E1,1.1264268E0,4.3353622E1,3.298639E0,6.450245E0,3.2943993E1,1.2179174E1],"tree_param":{"num_deleted":"0","num_feature":"10","num_nodes":"37","size_leaf_vector":"1"}},{"base_weights":[-8.774778E-3,1.11921355E-1,-5.590003E-1,5.90275E-1,-2.2897186E-2,-8.63224E-2,8.826861E-2,8.449351E-2,-1.122255E-2,-4.764919E-1,8.8380285E-2,-3.002301E-2,4.7854234E-2,5.6993756E-3,-5.380166E-1,-1.8998209E-1,2.573681E-1,-5.868534E-1,4.5366446E-3,6.448371E-2,-3.6075297E-1,6.1274934E-1,-5.889635E-2,-2.023079E-3,-8.23504E-2,2.5753826E-2,-6.921067E-2,9.263381E-2,-1.1831665E-2,-2.9984329E-2,7.332032E-2],"categories":[],"categories_nodes":[],"categories_segments":[],"categories_sizes":[],"default_left":[0,0,0,0,0,0,0,0,0,0,0,0,0,0,0,0,0,0,0,0,0,0,0,0,0,0,0,0,0,0,0],"id":23,"left_children":[1,3,5,7,9,-1,11,-1,-1,13,15,-1,-1,-1,17,19,21,23,-1,-1,25,27,29,-1,-1,-1,-1,-1,-1,-1,-1],"loss_changes":[1.9679205E1,1.5884003E1,5.5703297E0,4.1749153E0,1.0480439E1,0E0,2.675813E0,0E0,0E0,1.7381516E0,8.280503E0,0E0,0E0,0E0,1.4795847E0,9.908682E0,1.2681625E1,1.2426357E0,0E0,0E0,8.030783E0,5.909584E0,9.032314E0,0E0,0E0,0E0,0E0,0E0,0E0,0E0,0E0],"parents":[2147483647,0,0,1,1,2,2,3,3,4,4,6,6,9,9,10,10,14,14,15,15,16,16,17,17,20,20,21,21,22,22],"right_children":[2,4,6,8,10,-1,12,-1,-1,14,16,-1,-1,-1,18,20,22,24,-1,-1,26,28,30,-1,-1,-1,-1,-1,-1,-1,-1],"split_conditions":[7E1,3E0,7.745E3,9.06E-1,2E0,-8.63224E-2,7.33E-1,8.449351E-2,-1.122255E-2,1.083E3,1.916E3,-3.002301E-2,4.7854234E-2,5.6993756E-3,4.512E3,1.028E3,4.8E1,5.38E-1,4.5366446E-3,6.448371E-2,3.79E-1,9.08E-1,4.719E3,-2.023079E-3,-8.23504E-2,2.5753826E-2,-6.921067E-2,9.263381E-2,-1.1831665E-2,-2.9984329E-2,7.332032E-2],"split_indices":[6,1,5,7,2,0,7,0,0,5,5,0,0,0,5,5,6,4,0,0,7,4,5,0,0,0,0,0,0,0,0],"split_type":[0,0,0,0,0,0,0,0,0,0,0,0,0,0,0,0,0,0,0,0,0,0,0,0,0,0,0,0,0,0,0],"sum_hessian":[2.7504147E2,2.3132266E2,4.371882E1,4.4288074E1,1.8703459E2,3.593132E1,7.7874975E0,3.9518005E1,4.77007E0,3.1254549E1,1.5578004E2,3.9530094E0,3.834488E0,2.9113371E0,2.8343212E1,5.7558876E1,9.822117E1,2.653152E1,1.8116915E0,6.8986425E0,5.0660233E1,4.2537945E1,5.568322E1,5.1500463E0,2.1381474E1,1.2452736E1,3.8207497E1,3.5737625E1,6.8003216E0,4.8642403E1,7.040815E0],"tree_param":{"num_deleted":"0","num_feature":"10","num_nodes":"31","size_leaf_vector":"1"}},{"base_weights":[-1.952392E-2,3.2646698E-1,-2.3948821E-1,4.9583825E-1,1.0962696E-1,-3.8205615E-1,1.9852628E-1,-8.039397E-3,5.2592695E-1,-4.559739E-2,6.4444564E-2,-8.097588E-2,-5.6193167E-1,2.9741466E-1,-2.83774E-2,7.963141E-2,1.2842715E-1,2.481118E-1,-7.005335E-2,-3.1860387E-1,6.2465772E-2,-6.241016E-1,-2.8708098E-2,3.8938612E-1,-2.4366578E-2,-1.1739757E-2,3.233942E-2,3.3706802E-1,-2.545752E-2,4.2940017E-2,-4.4001293E-1,-0E0,-7.975145E-2,-3.3608355E-2,3.321585E-2,-8.179242E-3,4.5947272E-1,-1.0311556E-3,6.445523E-2,2.1948636E-2,-6.325241E-2,6.834394E-2,5.438903E-3],"categories":[],"categories_nodes":[],"categories_segments":[],"categories_sizes":[],"default_left":[0,0,0,0,0,0,0,0,0,0,0,0,0,0,0,0,0,0,0,0,0,0,0,0,0,0,0,0,0,0,0,0,0,0,0,0,0,0,0,0,0,0,0],"id":24,"left_children":[1,3,5,7,9,11,13,-1,15,17,-1,19,21,23,-1,-1,25,27,-1,29,-1,31,33,35,-1,-1,-1,37,-1,-1,39,-1,-1,-1,-1,-1,41,-1,-1,-1,-1,-1,-1],"loss_changes":[2.1586473E1,3.287694E0,1.1656508E1,1.4808836E0,4.329843E0,6.6362457E0,2.729971E0,0E0,1.5445118E0,9.550921E0,0E0,1.0183604E1,2.3070202E0,2.821243E0,0E0,0E0,1.060045E0,2.3350294E0,0E0,5.617421E0,0E0,1.1081848E0,2.0947711E0,1.7536335E0,0E0,0E0,0E0,2.6242976E0,0E0,0E0,3.0699959E0,0E0,0E0,0E0,0E0,0E0,9.802208E-1,0E0,0E0,0E0,0E0,0E0,0E0],"parents":[2147483647,0,0,1,1,2,2,3,3,4,4,5,5,6,6,8,8,9,9,11,11,12,12,13,13,16,16,17,17,19,19,21,21,22,22,23,23,27,27,30,30,36,36],"right_children":[2,4,6,8,10,12,14,-1,16,18,-1,20,22,24,-1,-1,26,28,-1,30,-1,32,34,36,-1,-1,-1,38,-1,-1,40,-1,-1,-1,-1,-1,42,-1,-1,-1,-1,-1,-1],"split_conditions":[5.41E2,6.03E-1,2.165E3,3E1,5.402E3,4.6E1,7.4E1,-8.039397E-3,5E0,3.148E3,6.4444564E-2,2.216E3,5.977E3,1.031E0,-2.83774E-2,7.963141E-2,1.777E3,1.042E0,-7.005335E-2,9.61E2,6.2465772E-2,3.57E-1,8.2E-1,3.8E1,-2.4366578E-2,-1.1739757E-2,3.233942E-2,1.968E3,-2.545752E-2,4.2940017E-2,3.65E-1,-0E0,-7.975145E-2,-3.3608355E-2,3.321585E-2,-8.179242E-3,5.3E1,-1.0311556E-3,6.445523E-2,2.1948636E-2,-6.325241E-2,6.834394E-2,5.438903E-3],"split_indices":[3,7,3,0,5,6,6,0,1,5,0,5,5,7,0,0,5,4,0,5,0,7,4,0,0,0,0,5,0,0,4,0,0,0,0,0,0,0,0,0,0,0,0],"split_type":[0,0,0,0,0,0,0,0,0,0,0,0,0,0,0,0,0,0,0,0,0,0,0,0,0,0,0,0,0,0,0,0,0,0,0,0,0,0,0,0,0,0,0],"sum_hessian":[2.6446442E2,1.0030844E2,1.6415599E2,4.836873E1,5.193971E1,1.2542007E2,3.873592E1,1.2630517E0,4.710568E1,4.325872E1,8.680989E0,5.2925636E1,7.249443E1,3.4555943E1,4.179977E0,3.109429E1,1.6011389E1,3.0404917E1,1.2853803E1,4.1219986E1,1.1705648E1,6.282257E1,9.671859E0,3.1494757E1,3.061186E0,5.9427485E0,1.006864E1,2.8181562E1,2.2233539E0,3.1228614E0,3.8097126E1,1.6113408E0,6.121123E1,6.472392E0,3.1994662E0,3.5663805E0,2.7928377E1,1.2248024E1,1.5933538E1,1.8516634E0,3.624546E1,1.954839E1,8.379987E0],"tree_param":{"num_deleted":"0","num_feature":"10","num_nodes":"43","size_leaf_vector":"1"}},{"base_weights":[-0E0,1.2174329E-1,-5.545098E-1,6.4610505E-1,-2.2631856E-2,-8.214587E-2,2.4550272E-2,8.510368E-2,-2.1220688E-3,2.4725683E-1,-2.9346907E-1,-1.7554421E-2,3.1431627E-2,3.8083807E-1,-2.6084933E-1,-3.6664614E-1,3.636827E-1,5.6837767E-2,7.6616657E-1,-5.6800887E-2,2.8094558E-2,3.8933434E-2,-4.5061308E-1,-4.656901E-3,5.8514412E-2,4.825881E-2,-2.6000928E-2,1.0821063E-1,-1.3799387E-2,-7.019477E-3,-6.81842E-2],"categories":[],"categories_nodes":[],"categories_segments":[],"categories_sizes":[],"default_left":[0,0,0,0,0,0,0,0,0,0,0,0,0,0,0,0,0,0,0,0,0,0,0,0,0,0,0,0,0,0,0],"id":25,"left_children":[1,3,5,7,9,-1,11,-1,-1,13,15,-1,-1,17,19,21,23,25,27,-1,-1,-1,29,-1,-1,-1,-1,-1,-1,-1,-1],"loss_changes":[1.8838825E1,1.7616373E1,3.5470848E0,1.7078495E0,1.44148E1,0E0,1.0245588E0,0E0,0E0,7.6844125E0,6.033307E0,0E0,0E0,9.563475E0,3.5584226E0,6.7967014E0,9.523132E-1,5.7986655E0,4.6325264E0,0E0,0E0,0E0,2.92972E0,0E0,0E0,0E0,0E0,0E0,0E0,0E0,0E0],"parents":[2147483647,0,0,1,1,2,2,3,3,4,4,6,6,9,9,10,10,13,13,14,14,15,15,16,16,17,17,18,18,22,22],"right_children":[2,4,6,8,10,-1,12,-1,-1,14,16,-1,-1,18,20,22,24,26,28,-1,-1,-1,30,-1,-1,-1,-1,-1,-1,-1,-1],"split_conditions":[7E1,3E0,7.845E3,1.042E0,1E0,-8.214587E-2,3E0,8.510368E-2,-2.1220688E-3,2.95E3,4.633E3,-1.7554421E-2,3.1431627E-2,2.279E3,4.705E3,1.083E3,7.61E-1,1E0,1.048E0,-5.6800887E-2,2.8094558E-2,3.8933434E-2,5.38E-1,-4.656901E-3,5.8514412E-2,4.825881E-2,-2.6000928E-2,1.0821063E-1,-1.3799387E-2,-7.019477E-3,-6.81842E-2],"split_indices":[6,1,5,4,8,0,1,0,0,5,5,0,0,5,5,5,4,9,4,0,0,0,4,0,0,0,0,0,0,0,0],"split_type":[0,0,0,0,0,0,0,0,0,0,0,0,0,0,0,0,0,0,0,0,0,0,0,0,0,0,0,0,0,0,0],"sum_hessian":[2.5871274E2,2.1809113E2,4.062163E1,4.0388374E1,1.7770274E2,3.3590343E1,7.031288E0,3.827291E1,2.115465E0,8.873906E1,8.8963684E1,5.269326E0,1.7619622E0,7.2764824E1,1.59742365E1,8.440613E1,4.557555E0,4.6080467E1,2.6684359E1,1.2327524E1,3.6467123E0,5.8705425E0,7.853558E1,1.581199E0,2.9763563E0,1.9147963E1,2.6932503E1,2.4210371E1,2.4739873E0,1.9647837E1,5.888775E1],"tree_param":{"num_deleted":"0","num_feature":"10","num_nodes":"31","size_leaf_vector":"1"}},{"base_weights":[-1.3108768E-2,2.8426716E-1,-2.7761918E-1,4.194529E-1,-8.0599606E-2,-4.8296034E-1,3.189289E-1,4.7966367E-1,-2.9277364E-2,-5.783137E-1,4.1009387E-1,1.7106334E-2,-5.535123E-1,5.3940284E-1,-4.1988652E-4,-2.2704942E-2,5.157499E-1,3.1365159E-3,-7.803158E-2,-9.800961E-3,7.393389E-2,-2.2713687E-2,2.8436178E-2,1.8869909E-2,-5.857726E-1,6.1385727E-1,-9.610499E-3,1.9662504E-1,6.584356E-1,-7.585553E-2,-0E0,8.206641E-2,-5.01145E-4,7.375744E-2,-1.1149952E-2,8.560353E-2,-0E0],"categories":[],"categories_nodes":[],"categories_segments":[],"categories_sizes":[],"default_left":[0,0,0,0,0,0,0,0,0,0,0,0,0,0,0,0,0,0,0,0,0,0,0,0,0,0,0,0,0,0,0,0,0,0,0,0,0],"id":26,"left_children":[1,3,5,7,9,11,13,15,-1,17,19,21,23,25,-1,-1,27,-1,-1,-1,-1,-1,-1,-1,29,31,-1,33,35,-1,-1,-1,-1,-1,-1,-1,-1],"loss_changes":[2.1342028E1,6.7317047E0,1.9194008E1,4.943701E0,1.2558207E1,4.224058E0,3.2193308E0,3.2113876E0,0E0,1.156476E0,3.0483527E0,1.3810298E0,3.2693214E0,1.8466988E0,0E0,0E0,2.4938889E0,0E0,0E0,0E0,0E0,0E0,0E0,0E0,1.6108589E0,1.0067883E0,0E0,5.521226E0,1.4127483E0,0E0,0E0,0E0,0E0,0E0,0E0,0E0,0E0],"parents":[2147483647,0,0,1,1,2,2,3,3,4,4,5,5,6,6,7,7,9,9,10,10,11,11,12,12,13,13,16,16,24,24,25,25,27,27,28,28],"right_children":[2,4,6,8,10,12,14,16,-1,18,20,22,24,26,-1,-1,28,-1,-1,-1,-1,-1,-1,-1,30,32,-1,34,36,-1,-1,-1,-1,-1,-1,-1,-1],"split_conditions":[9.24E2,3.148E3,2.264E3,1.048E0,4.686E3,3.93E-1,1E0,3E1,-2.9277364E-2,4.98E-1,7.75E-1,1.717E3,9.61E2,7.9E1,-4.1988652E-4,-2.2704942E-2,1.806E3,3.1365159E-3,-7.803158E-2,-9.800961E-3,7.393389E-2,-2.2713687E-2,2.8436178E-2,1.8869909E-2,7.906E3,9.38E-1,-9.610499E-3,1.109E3,9.02E-1,-7.585553E-2,-0E0,8.206641E-2,-5.01145E-4,7.375744E-2,-1.1149952E-2,8.560353E-2,-0E0],"split_indices":[3,5,3,4,5,7,9,0,0,4,4,5,5,6,0,0,5,0,0,0,0,0,0,0,5,7,0,5,7,0,0,0,0,0,0,0,0],"split_type":[0,0,0,0,0,0,0,0,0,0,0,0,0,0,0,0,0,0,0,0,0,0,0,0,0,0,0,0,0,0,0,0,0,0,0,0,0],"sum_hessian":[2.51987E2,1.17620224E2,1.3436678E2,8.5512924E1,3.21073E1,1.01793846E2,3.2572933E1,8.121842E1,4.294505E0,1.5459931E1,1.6647371E1,1.2837789E1,8.8956055E1,1.6162746E1,1.6410187E1,1.625033E0,7.959339E1,1.0227572E0,1.4437174E1,5.57694E0,1.107043E1,6.381892E0,6.455897E0,1.8113704E0,8.7144684E1,1.5004775E1,1.1579707E0,3.2503094E1,4.7090294E1,8.332827E1,3.8164206E0,1.3836567E1,1.1682079E0,9.788545E0,2.271455E1,4.488289E1,2.2074053E0],"tree_param":{"num_deleted":"0","num_feature":"10","num_nodes":"37","size_leaf_vector":"1"}},{"base_weights":[-8.666774E-3,1.8579601E-1,-2.929653E-1,-1.6435625E-2,4.9441448E-1,-4.8551974E-1,2.2666125E-1,8.049808E-2,-2.0231093E-1,5.8358335E-1,-2.2288365E-2,1.07864164E-1,-5.612988E-1,6.574172E-2,-4.3745734E-2,1.4181936E-1,-4.971737E-1,-1.3012298E-2,6.498664E-1,-1.8456899E-2,4.086218E-2,-1.2789415E-1,-7.0679945E-1,-5.1196076E-2,4.9960187E-1,1.2091993E-2,-5.9240186E-1,7.1482426E-1,-9.625816E-3,7.9958566E-2,-3.623936E-2,-9.488307E-2,-3.168293E-2,7.447533E-2,-9.930812E-3,-7.704685E-2,-0E0,9.279584E-2,-4.2322585E-3,-1.5974563E-2,2.9324612E-2,-3.4119137E-2,3.2874685E-2],"categories":[],"categories_nodes":[],"categories_segments":[],"categories_sizes":[],"default_left":[0,0,0,0,0,0,0,0,0,0,0,0,0,0,0,0,0,0,0,0,0,0,0,0,0,0,0,0,0,0,0,0,0,0,0,0,0,0,0,0,0,0,0],"id":27,"left_children":[1,3,5,7,9,11,13,-1,15,17,-1,19,21,-1,-1,23,25,-1,27,-1,-1,29,31,-1,33,-1,35,37,-1,39,-1,-1,41,-1,-1,-1,-1,-1,-1,-1,-1,-1,-1],"loss_changes":[1.4633574E1,1.0007804E1,1.1954877E1,1.3853437E1,4.946145E0,4.455845E0,8.078987E0,0E0,9.778378E0,3.5241013E0,0E0,1.5030528E0,3.5511627E0,0E0,0E0,1.1497492E1,3.59239E0,0E0,3.37492E0,0E0,0E0,1.3761975E0,1.5865135E0,0E0,2.6428995E0,0E0,9.5134544E-1,1.8299141E0,0E0,1.0031757E0,0E0,0E0,1.7850055E0,0E0,0E0,0E0,0E0,0E0,0E0,0E0,0E0,0E0,0E0],"parents":[2147483647,0,0,1,1,2,2,3,3,4,4,5,5,6,6,8,8,9,9,11,11,12,12,15,15,16,16,18,18,21,21,22,22,24,24,26,26,27,27,29,29,32,32],"right_children":[2,4,6,8,10,12,14,-1,16,18,-1,20,22,-1,-1,24,26,-1,28,-1,-1,30,32,-1,34,-1,36,38,-1,40,-1,-1,42,-1,-1,-1,-1,-1,-1,-1,-1,-1,-1],"split_conditions":[5.2E1,2.078E3,5.212E3,1.028E3,1.059E0,4.91E-1,8.2E1,8.049808E-2,5.67E-1,3.2E1,-2.2288365E-2,6.94E-1,2.95E3,6.574172E-2,-4.3745734E-2,1.502E3,1.191E3,-1.3012298E-2,3.148E3,-1.8456899E-2,4.086218E-2,1E0,9.73E-1,-5.1196076E-2,5.7E1,1.2091993E-2,4E0,1.026E0,-9.625816E-3,2.307E3,-3.623936E-2,-9.488307E-2,4.705E3,7.447533E-2,-9.930812E-3,-7.704685E-2,-0E0,9.279584E-2,-4.2322585E-3,-1.5974563E-2,2.9324612E-2,-3.4119137E-2,3.2874685E-2],"split_indices":[6,5,5,5,4,7,6,0,4,0,0,4,5,0,0,5,5,0,5,0,0,8,4,0,0,0,2,7,0,5,0,0,5,0,0,0,0,0,0,0,0,0,0],"split_type":[0,0,0,0,0,0,0,0,0,0,0,0,0,0,0,0,0,0,0,0,0,0,0,0,0,0,0,0,0,0,0,0,0,0,0,0,0,0,0,0,0,0,0],"sum_hessian":[2.4478137E2,1.465664E2,9.8214966E1,9.3344284E1,5.322211E1,7.2647026E1,2.5567942E1,1.4670399E1,7.867389E1,4.864213E1,4.5799804E0,7.2059298E0,6.544109E1,1.7737139E1,7.8308043E0,3.8035847E1,4.0638042E1,3.2815049E0,4.5360626E1,4.033026E0,3.1729035E0,2.1657919E1,4.3783176E1,1.391707E1,2.4118776E1,5.035661E0,3.5602383E1,4.226814E1,3.092487E0,1.0760416E1,1.0897503E1,3.8581596E1,5.2015777E0,2.0780252E1,3.3385222E0,3.391119E1,1.6911894E0,4.0921272E1,1.3468684E0,4.3250556E0,6.43536E0,3.9345877E0,1.26699E0],"tree_param":{"num_deleted":"0","num_feature":"10","num_nodes":"43","size_leaf_vector":"1"}},{"base_weights":[2.865012E-2,3.2431808E-1,-1.6689605E-1,4.2680675E-1,-1.4860827E-1,-2.571165E-1,3.310381E-1,-4.7743887E-2,5.053071E-1,-3.4898752E-1,3.8632136E-2,-7.258777E-2,-6.487483E-1,6.2649235E-2,-1.6435498E-2,2.7315838E-2,-3.5350166E-2,-0E0,5.549821E-1,-5.5506855E-2,1.6042402E-2,-3.4410256E-1,9.1447644E-2,-8.819088E-2,-0E0,1.3244906E-1,8.656289E-2,2.676195E-1,-7.71492E-2,4.2088443E-1,-1.18595764E-1,5.694183E-2,-1.8950766E-2,-8.088578E-3,4.771878E-2,6.891181E-2,-1.4509905E-2,-5.1554617E-2,1.1960032E-2],"categories":[],"categories_nodes":[],"categories_segments":[],"categories_sizes":[],"default_left":[0,0,0,0,0,0,0,0,0,0,0,0,0,0,0,0,0,0,0,0,0,0,0,0,0,0,0,0,0,0,0,0,0,0,0,0,0,0,0],"id":28,"left_children":[1,3,5,7,9,11,13,15,17,19,-1,21,23,-1,-1,-1,-1,-1,25,-1,-1,27,29,-1,-1,31,-1,33,-1,35,37,-1,-1,-1,-1,-1,-1,-1,-1],"loss_changes":[1.4964568E1,5.7128687E0,7.7745237E0,3.6768742E0,3.3603845E0,9.219728E0,3.004509E0,1.9452795E0,2.0381012E0,1.7411232E0,0E0,5.0778265E0,1.8878956E0,0E0,0E0,0E0,0E0,0E0,3.0591564E0,0E0,0E0,8.971106E0,5.5966215E0,0E0,0E0,3.6312048E0,0E0,1.1286076E0,0E0,3.0425797E0,3.768031E0,0E0,0E0,0E0,0E0,0E0,0E0,0E0,0E0],"parents":[2147483647,0,0,1,1,2,2,3,3,4,4,5,5,6,6,7,7,8,8,9,9,11,11,12,12,18,18,21,21,22,22,25,25,27,27,29,29,30,30],"right_children":[2,4,6,8,10,12,14,16,18,20,-1,22,24,-1,-1,-1,-1,-1,26,-1,-1,28,30,-1,-1,32,-1,34,-1,36,38,-1,-1,-1,-1,-1,-1,-1,-1],"split_conditions":[5.64E-1,5.3E1,5.977E3,2E0,9.63E-1,6.2E1,8.3E1,9.16E2,3.7E1,2.386E3,3.8632136E-2,1.87E3,1.005E0,6.2649235E-2,-1.6435498E-2,2.7315838E-2,-3.5350166E-2,-0E0,1.606E3,-5.5506855E-2,1.6042402E-2,1.15E3,6.63E-1,-8.819088E-2,-0E0,1.191E3,8.656289E-2,7.02E-1,-7.71492E-2,2.872E3,2.422E3,5.694183E-2,-1.8950766E-2,-8.088578E-3,4.771878E-2,6.891181E-2,-1.4509905E-2,-5.1554617E-2,1.1960032E-2],"split_indices":[7,6,5,2,4,6,6,3,0,3,0,5,4,0,0,0,0,0,5,0,0,5,4,0,0,5,0,4,0,5,5,0,0,0,0,0,0,0,0],"split_type":[0,0,0,0,0,0,0,0,0,0,0,0,0,0,0,0,0,0,0,0,0,0,0,0,0,0,0,0,0,0,0,0,0,0,0,0,0,0,0],"sum_hessian":[2.39093E2,9.3404755E1,1.4568825E2,7.819128E1,1.5213476E1,1.2793296E2,1.7755293E1,1.0961767E1,6.722951E1,1.2792514E1,2.4209626E0,9.539645E1,3.253651E1,1.28530445E1,4.9022474E0,4.737223E0,6.224544E0,6.5326138E0,6.0696896E1,1.1760793E1,1.0317212E0,3.278724E1,6.260921E1,2.9148394E1,3.3881164E0,2.0750734E1,3.9946163E1,9.950083E0,2.2837158E1,2.1289425E1,4.1319782E1,7.5311265E0,1.3219607E1,2.8843198E0,7.0657625E0,1.7311693E1,3.9777322E0,1.4282163E1,2.703762E1],"tree_param":{"num_deleted":"0","num_feature":"10","num_nodes":"39","size_leaf_vector":"1"}},{"base_weights":[1.5438804E-2,2.6393268E-1,-2.2120725E-1,3.3668333E-1,-2.1255875E-1,-4.2226735E-1,2.794352E-1,5.464194E-1,9.3944184E-2,-4.9154177E-2,2.3625225E-2,2.2771943E-2,-4.9133438E-1,-1.9637909E-2,3.8901985E-1,7.274909E-2,5.571359E-4,1.7000403E-1,-2.4623824E-2,2.1626337E-2,-5.3165454E-1,-1.09857805E-2,4.6394143E-1,-4.6734255E-2,3.1168416E-1,-5.668834E-1,8.014043E-3,5.2574974E-1,-8.397071E-3,2.5657885E-2,-2.353844E-2,6.112478E-2,-2.697421E-3,-0E0,-7.423469E-2,7.4352205E-2,-4.5638024E-3],"categories":[],"categories_nodes":[],"categories_segments":[],"categories_sizes":[],"default_left":[0,0,0,0,0,0,0,0,0,0,0,0,0,0,0,0,0,0,0,0,0,0,0,0,0,0,0,0,0,0,0,0,0,0,0,0,0],"id":29,"left_children":[1,3,5,7,9,11,13,15,17,-1,-1,-1,19,-1,21,-1,-1,23,-1,-1,25,-1,27,29,31,33,-1,35,-1,-1,-1,-1,-1,-1,-1,-1,-1],"loss_changes":[1.5031644E1,5.0730696E0,1.43165865E1,5.013113E0,2.4256804E0,5.0637302E0,2.7279398E0,1.0214615E0,1.7587811E0,0E0,0E0,0E0,3.4625988E0,0E0,1.8825355E0,0E0,0E0,2.0108805E0,0E0,0E0,2.397789E0,0E0,1.6559763E0,1.4695992E0,2.5293205E0,1.493185E0,0E0,1.7923727E0,0E0,0E0,0E0,0E0,0E0,0E0,0E0,0E0,0E0],"parents":[2147483647,0,0,1,1,2,2,3,3,4,4,5,5,6,6,7,7,8,8,12,12,14,14,17,17,20,20,22,22,23,23,24,24,25,25,27,27],"right_children":[2,4,6,8,10,12,14,16,18,-1,-1,-1,20,-1,22,-1,-1,24,-1,-1,26,-1,28,30,32,34,-1,36,-1,-1,-1,-1,-1,-1,-1,-1,-1],"split_conditions":[9.69E2,7.2E1,2.238E3,4E0,9.12E-1,3.57E-1,2E0,9.25E-1,8.78E-1,-4.9154177E-2,2.3625225E-2,2.2771943E-2,9.61E2,-1.9637909E-2,3.8E1,7.274909E-2,5.571359E-4,2.078E3,-2.4623824E-2,2.1626337E-2,7.906E3,-1.09857805E-2,7.4E1,4.66E-1,5.5E1,2E0,8.014043E-3,8.53E-1,-8.397071E-3,2.5657885E-2,-2.353844E-2,6.112478E-2,-2.697421E-3,-0E0,-7.423469E-2,7.4352205E-2,-4.5638024E-3],"split_indices":[3,6,3,1,4,7,2,7,7,0,0,0,5,0,0,0,0,5,0,0,5,0,6,4,6,1,0,7,0,0,0,0,0,0,0,0,0],"split_type":[0,0,0,0,0,0,0,0,0,0,0,0,0,0,0,0,0,0,0,0,0,0,0,0,0,0,0,0,0,0,0,0,0,0,0,0,0],"sum_hessian":[2.3608032E2,1.1538249E2,1.2069784E2,1.0323938E2,1.2143108E1,8.772545E1,3.297239E1,4.807176E1,5.516762E1,9.081478E0,3.0616307E0,6.780906E0,8.094454E1,5.056113E0,2.7916279E1,4.3340874E1,4.7308865E0,4.8012756E1,7.154864E0,2.2569163E0,7.868763E1,2.8702126E0,2.5046066E1,2.049953E1,2.7513226E1,7.533932E1,3.3483071E0,2.3162874E1,1.8831908E0,4.8998704E0,1.5599661E1,1.5542985E1,1.197024E1,4.6866803E0,7.065264E1,2.0486155E1,2.6767206E0],"tree_param":{"num_deleted":"0","num_feature":"10","num_nodes":"37","size_leaf_vector":"1"}},{"base_weights":[4.4784788E-2,1.4040741E-1,-4.030102E-1,5.5736524E-1,1.905043E-2,-6.695E-2,8.788927E-2,8.324129E-2,-0E0,2.0012707E-1,-1.6535015E-1,-2.1976855E-2,3.764543E-2,4.375827E-1,-4.9918342E-2,-2.4287489E-1,4.7584083E-2,5.620661E-1,-5.838395E-2,3.1194596E-2,-2.7216768E-1,4.158023E-2,-3.2834354E-1,-5.303931E-3,8.2814716E-2,-3.3234216E-2,3.0354064E-2,-5.4932456E-2,7.920025E-3,-5.9715446E-2,-1.0449434E-2],"categories":[],"categories_nodes":[],"categories_segments":[],"categories_sizes":[],"default_left":[0,0,0,0,0,0,0,0,0,0,0,0,0,0,0,0,0,0,0,0,0,0,0,0,0,0,0,0,0,0,0],"id":30,"left_children":[1,3,5,7,9,-1,11,-1,-1,13,15,-1,-1,17,19,21,-1,23,25,-1,27,-1,29,-1,-1,-1,-1,-1,-1,-1,-1],"loss_changes":[1.07060795E1,1.0067947E1,3.5871139E0,3.0434752E0,5.9985685E0,0E0,1.5591418E0,0E0,0E0,5.7591906E0,4.610456E0,0E0,0E0,3.4953508E0,4.1714807E0,5.2109394E0,0E0,3.0904827E0,1.7804896E0,0E0,2.451733E0,0E0,2.338194E0,0E0,0E0,0E0,0E0,0E0,0E0,0E0,0E0],"parents":[2147483647,0,0,1,1,2,2,3,3,4,4,6,6,9,9,10,10,13,13,14,14,15,15,17,17,18,18,20,20,22,22],"right_children":[2,4,6,8,10,-1,12,-1,-1,14,16,-1,-1,18,20,22,-1,24,26,-1,28,-1,30,-1,-1,-1,-1,-1,-1,-1,-1],"split_conditions":[7E1,3E0,7.845E3,8.18E-1,1E0,-6.695E-2,7.39E-1,8.324129E-2,-0E0,1E0,4.503E3,-2.1976855E-2,3.764543E-2,2.95E3,6.73E2,1.083E3,4.7584083E-2,1.468E3,4.719E3,3.1194596E-2,2.307E3,4.158023E-2,3E0,-5.303931E-3,8.2814716E-2,-3.3234216E-2,3.0354064E-2,-5.4932456E-2,7.920025E-3,-5.9715446E-2,-1.0449434E-2],"split_indices":[6,1,5,7,8,0,7,0,0,9,5,0,0,5,3,5,0,5,5,0,5,0,2,0,0,0,0,0,0,0,0],"split_type":[0,0,0,0,0,0,0,0,0,0,0,0,0,0,0,0,0,0,0,0,0,0,0,0,0,0,0,0,0,0,0],"sum_hessian":[2.2987228E2,1.9557787E2,3.429442E1,3.5567356E1,1.6001051E2,2.6641989E1,7.652428E0,2.8237692E1,7.329663E0,8.13374E1,7.86731E1,3.4323976E0,4.2200303E0,3.8764874E1,4.257253E1,7.42631E1,4.4100075E0,3.055849E1,8.206383E0,1.6807137E1,2.5765392E1,5.3588543E0,6.890424E1,4.8952274E0,2.5663263E1,6.240653E0,1.9657298E0,1.5768948E1,9.996446E0,3.5584816E1,3.3319427E1],"tree_param":{"num_deleted":"0","num_feature":"10","num_nodes":"31","size_leaf_vector":"1"}},{"base_weights":[-1.24332635E-2,1.801543E-1,-2.221328E-1,2.9465473E-1,-1.6921349E-1,-4.1294137E-1,1.3152951E-1,3.5580498E-1,-2.847947E-2,-3.4469426E-1,3.822102E-2,3.3554148E-2,-4.732506E-1,3.287272E-1,-2.4587438E-2,-1.5917966E-2,3.8367787E-1,2.058309E-2,-5.3687416E-2,3.3358376E-2,-5.3220093E-1,-9.641316E-3,4.041618E-1,5.0046855E-1,1.6740389E-1,3.0166624E-2,-2.2918886E-2,8.033638E-3,-5.6256205E-1,4.6533826E-1,-1.0542238E-2,7.0597105E-2,-0E0,-0E0,6.523839E-2,-7.214021E-2,2.6558328E-3,-1.29702E-3,6.667691E-2],"categories":[],"categories_nodes":[],"categories_segments":[],"categories_sizes":[],"default_left":[0,0,0,0,0,0,0,0,0,0,0,0,0,0,0,0,0,0,0,0,0,0,0,0,0,0,0,0,0,0,0,0,0,0,0,0,0,0,0],"id":31,"left_children":[1,3,5,7,9,11,13,15,-1,17,-1,-1,19,21,-1,-1,23,-1,-1,25,27,-1,29,31,33,-1,-1,-1,35,37,-1,-1,-1,-1,-1,-1,-1,-1,-1],"loss_changes":[9.718028E0,5.5151315E0,8.436546E0,3.9869041E0,4.0669785E0,4.536825E0,3.7488852E0,1.8184986E0,0E0,2.2198262E0,0E0,0E0,2.6228085E0,1.4646084E0,0E0,0E0,1.2270966E0,0E0,0E0,1.206101E0,1.7919369E0,0E0,1.4496155E0,1.8772516E0,2.676971E0,0E0,0E0,0E0,1.0955677E0,1.2752867E0,0E0,0E0,0E0,0E0,0E0,0E0,0E0,0E0,0E0],"parents":[2147483647,0,0,1,1,2,2,3,3,4,4,5,5,6,6,7,7,9,9,12,12,13,13,16,16,19,19,20,20,22,22,23,23,24,24,28,28,29,29],"right_children":[2,4,6,8,10,12,14,16,-1,18,-1,-1,20,22,-1,-1,24,-1,-1,26,28,-1,30,32,34,-1,-1,-1,36,38,-1,-1,-1,-1,-1,-1,-1,-1,-1],"split_conditions":[1.106E3,7.94E-1,2.102E3,7.7E1,5.524E3,9.61E2,7.03E-1,3E1,-2.847947E-2,9.61E2,3.822102E-2,3.3554148E-2,3.64E-1,3.8E1,-2.4587438E-2,-1.5917966E-2,1E0,2.058309E-2,-5.3687416E-2,1E0,3.65E-1,-9.641316E-3,7.4E1,3.303E3,4.655E3,3.0166624E-2,-2.2918886E-2,8.033638E-3,8.296E3,2E0,-1.0542238E-2,7.0597105E-2,-0E0,-0E0,6.523839E-2,-7.214021E-2,2.6558328E-3,-1.29702E-3,6.667691E-2],"split_indices":[3,7,3,6,5,5,7,0,0,5,0,0,7,0,0,0,8,0,0,9,4,0,6,5,5,0,0,0,5,2,0,0,0,0,0,0,0,0,0],"split_type":[0,0,0,0,0,0,0,0,0,0,0,0,0,0,0,0,0,0,0,0,0,0,0,0,0,0,0,0,0,0,0,0,0,0,0,0,0,0,0],"sum_hessian":[2.2099573E2,1.1498098E2,1.0601474E2,8.854368E1,2.6437304E1,6.849456E1,3.7520187E1,8.271811E1,5.8255653E0,2.1871737E1,4.565568E0,2.3169553E0,6.6177605E1,2.4212143E1,1.3308042E1,1.8755774E0,8.084253E1,1.3537204E0,2.0518017E1,6.675931E0,5.950167E1,2.9686568E0,2.1243486E1,4.312545E1,3.7717083E1,3.7061348E0,2.9697964E0,1.7540734E0,5.7747597E1,1.9979332E1,1.2641542E0,3.6879707E1,6.245744E0,3.292837E1,4.7887096E0,5.653559E1,1.2120062E0,3.0602884E0,1.6919044E1],"tree_param":{"num_deleted":"0","num_feature":"10","num_nodes":"39","size_leaf_vector":"1"}},{"base_weights":[4.6279587E-2,1.4806975E-1,-3.88368E-1,5.3746134E-1,3.0889722E-2,-5.181202E-1,1.8629675E-1,5.9076595E-1,-5.281202E-3,1.2164605E-1,-3.2492027E-1,-5.8346266E-1,5.8081746E-3,-1.5483968E-2,4.286964E-2,7.8224234E-2,-1.8062531E-3,-1.3425529E-1,2.4789138E-1,2.5139654E-2,-4.5131296E-1,-7.791633E-2,6.7942017E-3,3.5282388E-1,-3.8763073E-1,4.779705E-1,-0E0,1.0824531E-2,-5.354197E-1,-2.4211695E-2,8.371689E-2,2.7097423E-2,-6.1772224E-2,6.7588665E-2,-3.8783362E-3,-2.0804605E-2,6.66263E-2,-7.319806E-2,6.8638613E-3],"categories":[],"categories_nodes":[],"categories_segments":[],"categories_sizes":[],"default_left":[0,0,0,0,0,0,0,0,0,0,0,0,0,0,0,0,0,0,0,0,0,0,0,0,0,0,0,0,0,0,0,0,0,0,0,0,0,0,0],"id":32,"left_children":[1,3,5,7,9,11,13,15,-1,17,19,21,-1,-1,-1,-1,-1,23,25,-1,27,-1,-1,29,31,33,35,-1,37,-1,-1,-1,-1,-1,-1,-1,-1,-1,-1],"loss_changes":[1.0310572E1,8.204765E0,4.3522406E0,1.7513285E0,5.3273706E0,1.9094067E0,1.2312369E0,1.2918301E0,0E0,4.620779E0,3.2054443E0,1.596034E0,0E0,0E0,0E0,0E0,0E0,7.3606606E0,5.1287727E0,0E0,2.0015469E0,0E0,0E0,5.2147694E0,3.6569037E0,1.980382E0,5.9449687E0,0E0,1.4390717E0,0E0,0E0,0E0,0E0,0E0,0E0,0E0,0E0,0E0,0E0],"parents":[2147483647,0,0,1,1,2,2,3,3,4,4,5,5,6,6,7,7,9,9,10,10,11,11,17,17,18,18,20,20,23,23,24,24,25,25,26,26,28,28],"right_children":[2,4,6,8,10,12,14,16,-1,18,20,22,-1,-1,-1,-1,-1,24,26,-1,28,-1,-1,30,32,34,36,-1,38,-1,-1,-1,-1,-1,-1,-1,-1,-1,-1],"split_conditions":[6.9E1,3E0,8.087E3,1.026E0,8.22E-1,9.88E-1,7.39E-1,1.042E0,-5.281202E-3,1.731E3,5.67E-1,1.054E0,5.8081746E-3,-1.5483968E-2,4.286964E-2,7.8224234E-2,-1.8062531E-3,1.191E3,4.7E1,2.5139654E-2,1.109E3,-7.791633E-2,6.7942017E-3,6.8E-1,3.13E-1,8.98E-1,4.503E3,1.0824531E-2,5.102E3,-2.4211695E-2,8.371689E-2,2.7097423E-2,-6.1772224E-2,6.7588665E-2,-3.8783362E-3,-2.0804605E-2,6.66263E-2,-7.319806E-2,6.8638613E-3],"split_indices":[6,1,5,7,7,4,7,4,0,5,4,7,0,0,0,0,0,5,6,0,5,0,0,4,4,4,5,0,5,0,0,0,0,0,0,0,0,0,0],"split_type":[0,0,0,0,0,0,0,0,0,0,0,0,0,0,0,0,0,0,0,0,0,0,0,0,0,0,0,0,0,0,0,0,0,0,0,0,0,0,0],"sum_hessian":[2.1283655E2,1.7831053E2,3.4526005E1,3.2489338E1,1.458212E2,2.9471937E1,5.0540695E0,3.0180645E1,2.3086944E0,1.2209052E2,2.3730675E1,2.672496E1,2.746976E0,1.632275E0,3.4217947E0,2.8487171E1,1.6934747E0,3.915496E1,8.293556E1,2.8854504E0,2.0845224E1,2.5641644E1,1.0833182E0,1.1596196E1,2.7558764E1,3.769029E1,4.5245274E1,2.166316E0,1.8678907E1,5.280669E0,6.315527E0,2.2815547E0,2.5277208E1,3.3332073E1,4.358215E0,3.909253E1,6.152745E0,1.7665741E1,1.0131667E0],"tree_param":{"num_deleted":"0","num_feature":"10","num_nodes":"39","size_leaf_vector":"1"}},{"base_weights":[-0E0,2.7049056E-1,-1.782038E-1,3.7978297E-1,-0E0,-3.3824992E-1,2.222256E-1,4.3656853E-1,-1.7495017E-2,-1.2750669E-1,2.2568865E-2,2.9110815E-2,-3.930465E-1,4.306321E-1,-4.5436308E-2,5.953355E-2,-0E0,1.3436142E-1,-2.7772653E-1,2.0534698E-2,-4.411374E-1,6.111489E-2,-8.740303E-3,2.5160536E-2,-2.2944633E-2,-1.9879729E-2,3.771492E-2,2.0938436E-2,-5.1767193E-2,-9.199227E-2,-5.492743E-1,-2.9874805E-2,9.206395E-3,-7.038025E-2,2.3598948E-3],"categories":[],"categories_nodes":[],"categories_segments":[],"categories_sizes":[],"default_left":[0,0,0,0,0,0,0,0,0,0,0,0,0,0,0,0,0,0,0,0,0,0,0,0,0,0,0,0,0,0,0,0,0,0,0],"id":33,"left_children":[1,3,5,7,9,11,13,15,-1,17,-1,-1,19,21,23,-1,-1,25,27,-1,29,-1,-1,-1,-1,-1,-1,-1,-1,31,33,-1,-1,-1,-1],"loss_changes":[1.1087164E1,2.6708045E0,9.6121645E0,2.6289616E0,1.0730315E0,4.188382E0,2.8189178E0,1.1282759E0,0E0,1.4650896E0,0E0,0E0,3.4502068E0,1.3311329E0,1.3098892E0,0E0,0E0,1.2941859E0,2.089372E0,0E0,2.811943E0,0E0,0E0,0E0,0E0,0E0,0E0,0E0,0E0,1.0926111E0,1.0344429E0,0E0,0E0,0E0,0E0],"parents":[2147483647,0,0,1,1,2,2,3,3,4,4,5,5,6,6,7,7,9,9,12,12,13,13,14,14,17,17,18,18,20,20,29,29,30,30],"right_children":[2,4,6,8,10,12,14,16,-1,18,-1,-1,20,22,24,-1,-1,26,28,-1,30,-1,-1,-1,-1,-1,-1,-1,-1,32,34,-1,-1,-1,-1],"split_conditions":[5.41E2,5E0,2.136E3,7.8E1,2.501E3,3.78E-1,1E0,8.78E-1,-1.7495017E-2,5.57E-1,2.2568865E-2,2.9110815E-2,1.028E3,7.9E1,4.5E-1,5.953355E-2,-0E0,1.238E3,1.083E3,2.0534698E-2,1.067E3,6.111489E-2,-8.740303E-3,2.5160536E-2,-2.2944633E-2,-1.9879729E-2,3.771492E-2,2.0938436E-2,-5.1767193E-2,3E0,8.296E3,-2.9874805E-2,9.206395E-3,-7.038025E-2,2.3598948E-3],"split_indices":[3,1,3,6,5,4,9,7,0,4,0,0,5,6,7,0,0,5,5,0,3,0,0,0,0,0,0,0,0,2,5,0,0,0,0],"split_type":[0,0,0,0,0,0,0,0,0,0,0,0,0,0,0,0,0,0,0,0,0,0,0,0,0,0,0,0,0,0,0,0,0,0,0],"sum_hessian":[2.1028621E2,8.198325E1,1.2830295E2,5.534031E1,2.6642942E1,9.340355E1,3.48994E1,5.1958126E1,3.382186E0,1.704548E1,9.597463E0,4.784688E0,8.8618866E1,1.7095495E1,1.7803904E1,4.6136013E1,5.8221126E0,5.6806026E0,1.1364878E1,4.5352387E0,8.4083626E1,1.6002106E1,1.093389E0,3.869326E0,1.3934577E1,1.4728612E0,4.2077413E0,1.5970792E0,9.767798E0,2.493072E1,5.915291E1,1.2037413E1,1.2893307E1,5.79276E1,1.225305E0],"tree_param":{"num_deleted":"0","num_feature":"10","num_nodes":"35","size_leaf_vector":"1"}},{"base_weights":[-9.32431E-3,-2.4321012E-1,2.070457E-1,7.4741416E-2,-4.7441489E-1,-2.7288395E-1,3.020025E-1,3.3468504E-2,-9.913679E-2,-6.74564E-2,-0E0,1.2175509E-2,-4.3199938E-2,4.0777913E-1,2.7613228E-2,4.0540446E-2,-2.501552E-1,3.2999486E-2,-2.423046E-2,3.0284088E-2,5.809653E-1,-5.575089E-2,4.5360842E-1,-3.7673762E-1,2.246787E-2,4.5744445E-2,-1.2590931E-1,7.033248E-1,5.714561E-2,-6.0359426E-3,8.074529E-2,7.407616E-4,-6.472693E-2,3.4222323E-2,-3.44647E-2,9.621288E-2,8.415837E-3,-4.313135E-2,5.17848E-2],"categories":[],"categories_nodes":[],"categories_segments":[],"categories_sizes":[],"default_left":[0,0,0,0,0,0,0,0,0,0,0,0,0,0,0,0,0,0,0,0,0,0,0,0,0,0,0,0,0,0,0,0,0,0,0,0,0,0,0],"id":34,"left_children":[1,3,5,7,9,11,13,-1,15,-1,17,-1,-1,19,21,-1,23,-1,-1,25,27,-1,29,31,-1,-1,33,35,37,-1,-1,-1,-1,-1,-1,-1,-1,-1,-1],"loss_changes":[1.1796805E1,8.765245E0,6.292191E0,2.1919422E0,2.1633158E0,1.1067784E0,2.7967978E0,0E0,3.0270562E0,0E0,1.4574988E0,0E0,0E0,4.479845E0,1.0264037E1,0E0,2.4863577E0,0E0,0E0,2.3571384E0,2.5285397E0,0E0,3.1914911E0,1.8166623E0,0E0,0E0,